tree
version=v4
num_class=1
num_tree_per_iteration=1
label_index=0
max_feature_idx=6
objective=regression
feature_names=drop_sequence distance_calculated distance_covered_till_drop origin_warehouse_code destination_warehouse_code total_quantity trip_start_time
feature_infos=[1:14] [0:4181] [0:4192] none [0:134] [0:120] [0:1737]
tree_sizes=2758 2787 2783 2789 2781 2783 2788 2793 2787 2786 2793 2792 2788 2787 2780 2779 2786 2780 2781 2775 2777 2770 2788 2772 2789 2785 2767 2797 2784 2796 2779 2776 2774 2781 2773 2784 2773 2783 2781 2770 2789 2805 2765 2778 2781 2771 2773 2767 2796 2742 2752 2781 2774 2733 2747 2762 2759 2712 2757 2749 2741 2717 2750 2731 2730 2765 2711 2696 2746 2712 2676 2741 2747 2656 2717 2683 2703 2715 2708 2754 2754 2701 2706 2687 2734 2652 2711 2698 2712 2732 2685 2656 2738 2712 2690 2658 2612 2691 2672 2655

Tree=0
num_leaves=31
num_cat=0
split_feature=0 2 0 2 2 0 2 1 2 0 1 2 2 6 0 6 0 1 4 6 1 6 6 2 6 6 2 6 2 4
split_gain=1.63891e+10 2.67989e+09 1.91937e+09 6.05541e+08 4.68545e+08 3.86169e+08 2.96376e+08 1.6171e+08 1.33524e+08 7.46901e+07 7.24383e+07 6.41932e+07 5.02354e+07 4.51235e+07 4.34641e+07 4.3456e+07 4.26274e+07 4.05686e+07 3.27013e+07 3.26208e+07 3.26028e+07 3.21165e+07 2.76235e+07 2.61503e+07 2.52457e+07 2.17477e+07 2.16604e+07 1.94354e+07 1.87761e+07 1.84059e+07
threshold=3.5000000000000004 13.500000000000002 5.5000000000000009 4.5000000000000009 21.500000000000004 7.5000000000000009 23.500000000000004 3.5000000000000004 28.500000000000004 4.5000000000000009 5.5000000000000009 30.500000000000004 28.500000000000004 1093.5000000000002 8.5000000000000018 1289.5000000000002 2.5000000000000004 1.5000000000000002 12.500000000000002 1155.5000000000002 10.500000000000002 1144.5000000000002 843.50000000000011 13.500000000000002 895.50000000000011 1295.5000000000002 11.500000000000002 830.50000000000011 17.500000000000004 15.500000000000002
decision_type=2 2 2 2 2 2 2 2 2 2 2 2 2 2 2 2 2 2 2 2 2 2 2 2 2 2 2 2 2 2
left_child=1 3 4 17 9 8 10 18 21 15 24 22 20 -13 -7 23 26 -1 -5 -10 -8 -4 -6 -2 -3 -11 -9 -20 -26 -12
right_child=2 6 5 7 11 14 12 16 19 25 29 13 -14 -15 -16 -17 -18 -19 27 -21 -22 -23 -24 -25 28 -27 -28 -29 -30 -31
leaf_value=3135.6070198243065 3293.3312285932216 3299.9128353476749 3482.57814450755 3298.3130516355236 3429.524019188405 3605.5152559953617 3388.9566868988336 3147.2110563305355 3558.0208615929714 3396.4221870221463 3306.8943834485517 3487.6691177842604 3436.7093583040887 3559.2653059733666 3652.2613242459315 3399.8851060903039 3225.3000722367105 3078.0985392073198 3202.0047654747023 3609.383153701755 3305.2860094795415 3539.938963240902 3480.7963329436752 3351.348739362139 3315.5115987559029 3462.3059433639401 3191.783516045236 3242.2268854439726 3377.100185369216 3256.2166470578995
leaf_weight=144 135 213 303 65 202 329 171 650 405 208 89 253 177 135 503 109 96 828 233 178 64 144 219 183 90 66 131 248 110 368
leaf_count=144 135 213 303 65 202 329 171 650 405 208 89 253 177 135 503 109 96 828 233 178 64 144 219 183 90 66 131 248 110 368
internal_value=3355.94 3209.92 3515.16 3147.46 3431.39 3583.11 3326.6 3189.02 3542.18 3371.54 3293.52 3483.24 3396.47 3512.58 3633.78 3345.4 3162.42 3086.62 3231.74 3573.7 3366.17 3501.06 3456.2 3326.72 3323.87 3412.29 3154.69 3222.74 3349.39 3266.09
internal_weight=0 3677 3372 2395 1510 1862 1282 1423 1030 701 870 809 412 388 832 427 877 972 546 583 235 447 421 318 413 274 781 481 200 457
internal_count=7049 3677 3372 2395 1510 1862 1282 1423 1030 701 870 809 412 388 832 427 877 972 546 583 235 447 421 318 413 274 781 481 200 457
is_linear=0
shrinkage=1


Tree=1
num_leaves=31
num_cat=0
split_feature=0 2 0 2 2 2 0 0 0 2 1 1 0 6 2 0 2 6 1 6 1 4 6 6 2 6 2 1 0 6
split_gain=1.32751e+10 2.17071e+09 1.57874e+09 5.54376e+08 4.90488e+08 2.40065e+08 1.32419e+08 1.19597e+08 1.05767e+08 8.73792e+07 5.92265e+07 5.55408e+07 4.6056e+07 4.40747e+07 4.34815e+07 4.22995e+07 4.06907e+07 3.51993e+07 3.28606e+07 2.99478e+07 2.78352e+07 2.68722e+07 2.27665e+07 2.19592e+07 2.11817e+07 1.98463e+07 1.75322e+07 1.73045e+07 1.62463e+07 1.57071e+07
threshold=3.5000000000000004 13.500000000000002 6.5000000000000009 21.500000000000004 4.5000000000000009 23.500000000000004 1.5000000000000002 4.5000000000000009 8.5000000000000018 33.500000000000007 6.5000000000000009 5.5000000000000009 2.5000000000000004 1155.5000000000002 35.500000000000007 4.5000000000000009 28.500000000000004 1289.5000000000002 1.5000000000000002 1295.5000000000002 6.5000000000000009 13.500000000000002 1295.5000000000002 895.50000000000011 13.500000000000002 1236.5000000000002 3.5000000000000004 19.500000000000004 4.5000000000000009 495.50000000000006
decision_type=2 2 2 2 2 2 2 2 2 2 2 2 2 2 2 2 2 2 2 2 2 2 2 2 2 2 2 2 2 2
left_child=1 4 3 7 18 10 -6 17 14 11 23 15 25 28 22 -5 20 24 26 -9 -7 -14 -4 -3 -2 -8 -1 -12 -11 -18
right_child=2 5 8 9 6 16 12 19 -10 13 27 -13 21 -15 -16 -17 29 -19 -20 -21 -22 -23 -24 -25 -26 -27 -28 -29 -30 -31
leaf_value=-213.51028431348564 -56.345714405377706 -52.072969319716748 170.5895083036261 89.813399660657026 -186.68720569936082 38.572714581910304 -156.74083136246031 50.612470275108969 266.69137076952347 107.4702840133625 -93.099354921995541 72.277056437851442 -23.208372246135369 210.10813765274852 231.95810779581598 151.06360505844532 34.979064582375919 39.55277300493433 -250.05515201840421 112.90984631717795 -31.129078698880747 -107.03915384305668 226.00964848682133 -7.5659332150610812 -4.1299560959873309 -113.02908468441088 -118.26504962755287 -43.316005794568497 157.952428929946 96.223558639386383
leaf_weight=121 135 230 295 171 586 136 354 327 503 85 338 247 44 152 379 331 68 109 828 101 99 292 99 214 183 147 23 88 255 109
leaf_count=121 135 230 295 171 586 136 354 327 503 85 338 247 44 152 379 331 68 109 828 101 99 292 99 214 183 147 23 88 255 109
internal_value=0 -131.417 143.304 89.9164 -187.631 -26.3996 -150.23 27.9567 231.001 132.604 -56.1785 111.098 -124.705 165.344 207.776 130.199 36.4831 -9.48759 -242.387 65.3135 9.20898 -96.0613 184.515 -30.6214 -26.297 -143.915 -198.298 -82.8155 145.332 72.6946
internal_weight=0 3677 3372 2096 2395 1282 1423 855 1276 1241 870 749 837 492 773 502 412 427 972 428 235 336 394 444 318 501 144 426 340 177
internal_count=7049 3677 3372 2096 2395 1282 1423 855 1276 1241 870 749 837 492 773 502 412 427 972 428 235 336 394 444 318 501 144 426 340 177
is_linear=0
shrinkage=0.1


Tree=2
num_leaves=31
num_cat=0
split_feature=0 2 0 2 2 0 2 1 2 2 1 6 6 0 0 1 0 2 6 2 1 4 6 6 6 2 2 2 2 4
split_gain=1.07529e+10 1.75828e+09 1.28743e+09 3.97295e+08 3.15897e+08 2.52563e+08 1.94507e+08 1.12109e+08 8.83618e+07 7.2163e+07 5.67026e+07 4.44164e+07 3.53318e+07 3.16627e+07 2.68129e+07 2.66171e+07 2.58404e+07 2.38673e+07 2.37135e+07 2.3394e+07 2.43989e+07 2.23501e+07 1.95893e+07 1.81131e+07 1.75416e+07 1.71232e+07 1.68691e+07 1.61565e+07 1.57019e+07 1.93174e+07
threshold=3.5000000000000004 13.500000000000002 5.5000000000000009 4.5000000000000009 24.500000000000004 7.5000000000000009 24.500000000000004 3.5000000000000004 28.500000000000004 13.500000000000002 5.5000000000000009 1078.5000000000002 1033.5000000000002 9.5000000000000018 2.5000000000000004 1.5000000000000002 2.5000000000000004 15.500000000000002 1155.5000000000002 15.500000000000002 5.5000000000000009 12.500000000000002 1065.5000000000002 895.50000000000011 1144.5000000000002 51.500000000000007 11.500000000000002 27.500000000000004 6.5000000000000009 38.500000000000007
decision_type=2 2 2 2 2 2 2 2 2 2 2 2 2 2 2 2 2 2 2 2 2 2 2 2 2 2 2 2 2 2
left_child=1 3 4 15 9 8 10 21 19 -2 17 25 -11 -7 26 -1 -8 -3 -10 -4 24 -5 -12 -19 -21 -6 -9 -18 29 -23
right_child=2 6 5 7 11 13 16 14 18 12 22 -13 -14 -15 -16 -17 27 23 -20 20 -22 28 -24 -25 -26 -27 -28 -29 -30 -31
leaf_value=-178.46775337093408 -26.050393602858147 -60.230840122394071 57.617362175668987 -44.596057023268486 85.415303259349074 211.40150493173039 3.4216672477075614 -170.08183376869789 163.79306661252622 19.507444623443817 -85.900066652884391 147.25167739291152 68.567218278249115 252.40681966145837 -107.48110661506654 -225.04963379516695 27.178644925285791 -30.234265103451044 207.58506966923062 121.35196327944192 77.85540898635432 -202.806784362793 -44.755913908401055 16.511370574235919 170.68465632388467 147.29582716997933 -130.74681188568815 82.755152330854358 -98.402734961320675 -107.77255738865244
leaf_weight=144 240 117 56 65 363 544 118 650 405 378 309 238 240 288 96 828 85 172 178 196 81 35 185 160 114 51 131 136 391 55
leaf_count=144 240 117 56 65 363 544 118 650 405 378 309 238 240 288 96 828 85 172 178 196 81 35 185 160 114 51 131 136 391 55
internal_value=0 -118.276 128.974 -168.868 60.3587 184.618 -23.7596 -135.207 151.517 20.487 -47.1139 112.828 38.5598 225.596 -157.354 -218.149 41.2054 -21.3931 177.164 118.067 126.725 -99.6336 -70.4918 -7.70625 139.494 93.0383 -163.484 61.3796 -107.071 -144.73
internal_weight=0 3677 3372 2395 1510 1862 1282 1423 1030 858 943 652 618 832 877 972 339 449 583 447 391 546 494 332 310 414 781 221 481 90
internal_count=7049 3677 3372 2395 1510 1862 1282 1423 1030 858 943 652 618 832 877 972 339 449 583 447 391 546 494 332 310 414 781 221 481 90
is_linear=0
shrinkage=0.1


Tree=3
num_leaves=31
num_cat=0
split_feature=0 2 0 2 2 2 1 0 0 2 1 1 6 2 6 0 6 0 0 1 6 0 6 6 2 1 4 2 2 4
split_gain=8.70982e+09 1.4242e+09 1.05235e+09 3.69613e+08 3.21809e+08 1.61481e+08 9.08086e+07 8.55401e+07 6.91516e+07 6.15911e+07 4.3334e+07 3.93472e+07 3.32367e+07 3.13701e+07 3.0552e+07 2.58462e+07 2.56914e+07 2.25272e+07 2.17185e+07 2.15598e+07 2.12619e+07 1.94568e+07 1.6321e+07 1.51939e+07 1.42011e+07 1.41153e+07 1.39706e+07 1.3664e+07 1.34839e+07 1.32005e+07
threshold=3.5000000000000004 13.500000000000002 6.5000000000000009 21.500000000000004 4.5000000000000009 23.500000000000004 3.5000000000000004 4.5000000000000009 8.5000000000000018 31.500000000000004 5.5000000000000009 6.5000000000000009 990.50000000000011 35.500000000000007 990.50000000000011 4.5000000000000009 1289.5000000000002 2.5000000000000004 2.5000000000000004 1.5000000000000002 1295.5000000000002 2.5000000000000004 1295.5000000000002 990.50000000000011 3.5000000000000004 19.500000000000004 68.500000000000014 11.500000000000002 13.500000000000002 32.500000000000007
decision_type=2 2 2 2 2 2 2 2 2 2 2 2 2 2 2 2 2 2 2 2 2 2 2 2 2 2 2 2 2 2
left_child=1 4 3 7 19 11 21 16 13 10 15 23 -11 22 17 -5 28 -7 27 24 -9 -6 -4 -3 -1 -13 29 -8 -2 -21
right_child=2 5 8 9 6 14 18 20 -10 12 -12 25 -14 -15 -16 -17 -18 -19 -20 26 -22 -23 -24 -25 -26 -27 -28 -29 -30 -31
leaf_value=-174.31248250914015 -48.106106007187456 -40.682857106822411 137.34799402661244 70.630565602869922 -106.38825036840501 -26.355559454324112 -153.07365257175152 41.102847567100412 216.53424942289621 111.61328359301625 46.777902382400441 -76.806225509615345 159.93070103518443 189.43614779286145 65.074185693264013 120.9932200292054 32.126174498916768 33.86922126622995 -96.732995140552532 -195.56632709047071 93.594313697059562 -68.35476073806484 184.27180904812283 -3.189013847688674 -88.591771266771403 -31.843793750351125 -218.02919205336545 -117.67213037505405 -6.4451549136573512 -122.32629518508912
leaf_weight=121 135 258 295 158 306 106 650 327 503 366 197 338 233 379 156 287 109 150 96 460 101 240 99 186 23 88 342 131 183 26
leaf_count=121 135 258 295 158 306 106 650 327 503 366 197 338 233 379 156 287 109 150 96 460 101 240 99 186 23 88 342 131 183 26
internal_value=0 -106.448 116.076 72.4885 -151.981 -21.3836 -121.686 21.8966 187.675 107.344 85.8254 -45.807 130.408 168.896 30.19 103.112 -9.77057 8.9324 -141.618 -196.334 53.4899 -89.6702 149.138 -24.976 -160.621 -67.5182 -202.545 -147.136 -24.1314 -191.648
internal_weight=0 3677 3372 2096 2395 1282 1423 855 1276 1241 642 870 599 773 412 445 427 256 877 972 428 546 394 444 144 426 828 781 318 486
internal_count=7049 3677 3372 2096 2395 1282 1423 855 1276 1241 642 870 599 773 412 445 427 256 877 972 428 546 394 444 144 426 828 781 318 486
is_linear=0
shrinkage=0.1


Tree=4
num_leaves=31
num_cat=0
split_feature=0 2 0 2 2 0 2 0 2 2 2 6 0 6 1 1 0 2 4 1 6 6 1 2 6 6 6 2 2 4
split_gain=7.05495e+09 1.15666e+09 8.67279e+08 2.27534e+08 2.08665e+08 1.64046e+08 1.6179e+08 7.2551e+07 5.93593e+07 4.92474e+07 4.85235e+07 3.27704e+07 2.90877e+07 2.56277e+07 2.34695e+07 2.25745e+07 2.19988e+07 2.08532e+07 1.97436e+07 1.74635e+07 1.63847e+07 1.58277e+07 1.50406e+07 1.6423e+07 1.3568e+07 1.33164e+07 1.3207e+07 1.30749e+07 1.29322e+07 1.24055e+07
threshold=3.5000000000000004 12.500000000000002 5.5000000000000009 4.5000000000000009 24.500000000000004 7.5000000000000009 20.500000000000004 2.5000000000000004 27.500000000000004 13.500000000000002 26.500000000000004 1078.5000000000002 2.5000000000000004 1033.5000000000002 6.5000000000000009 3.5000000000000004 9.5000000000000018 43.500000000000007 13.500000000000002 1.5000000000000002 1122.5000000000002 1649.5000000000002 7.5000000000000009 19.500000000000004 857.50000000000011 978.50000000000011 534.50000000000011 27.500000000000004 19.500000000000004 19.500000000000004
decision_type=2 2 2 2 2 2 2 2 2 2 2 2 2 2 2 2 2 2 2 2 2 2 2 2 2 2 2 2 2 2
left_child=1 3 4 19 9 8 12 15 20 -2 14 27 25 22 24 -5 -7 -10 -9 -1 -4 -15 23 -11 -8 -3 -12 -6 -22 -20
right_child=2 6 5 7 11 16 10 18 17 13 26 -13 -14 21 -16 -17 -18 -19 29 -21 28 -23 -24 -25 -26 -27 -28 -29 -30 -31
leaf_value=-144.55888191329109 -22.697964954376221 -84.211571841890162 79.984412464782281 -100.12101224833773 38.834628465876861 171.33324483913535 -9.5089298913727944 -4.1326204802931814 131.93973645184721 3.610823449033957 20.227547659246547 120.36426534171865 -29.766565467717299 68.400686948153449 -39.276443915967121 -134.27773570009182 205.51270351409914 173.34227974600424 -145.84776947021484 -182.29019944978799 77.702899339463983 2.0325128891251305 -45.216630910572256 48.707788041143708 39.166897998809816 -51.447946679644886 68.465288774003383 82.830495506651857 142.67165870666506 -71.544354354583476
leaf_weight=144 240 275 274 262 85 544 134 41 448 208 95 238 293 196 151 740 288 167 25 828 45 44 38 132 100 226 141 329 96 222
leaf_count=144 240 275 274 262 85 544 134 41 448 208 95 238 293 196 151 740 288 167 25 828 45 44 38 132 100 226 141 329 96 222
internal_value=0 -95.8032 104.469 -140.163 48.152 150.139 -24.8905 -112.632 123.462 15.7467 13.3446 90.7958 -54.7947 30.6767 -8.54091 -125.347 183.165 143.182 -68.3975 -176.7 94.2382 56.2332 14.4504 21.1191 11.2927 -69.432 49.0476 73.7975 121.937 -79.0649
internal_weight=0 3677 3372 2262 1510 1862 1415 1290 1030 858 621 652 794 618 385 1002 832 615 288 972 415 240 378 340 234 501 236 414 141 247
internal_count=7049 3677 3372 2262 1510 1862 1415 1290 1030 858 621 652 794 618 385 1002 832 615 288 972 415 240 378 340 234 501 236 414 141 247
is_linear=0
shrinkage=0.1


Tree=5
num_leaves=31
num_cat=0
split_feature=0 2 0 2 2 0 2 1 2 1 2 4 6 2 1 2 6 6 0 6 6 0 1 2 2 6 1 6 0 0
split_gain=5.71451e+09 9.41493e+08 7.02496e+08 2.09505e+08 1.69018e+08 1.32877e+08 1.08347e+08 6.27395e+07 4.8081e+07 4.24864e+07 3.99636e+07 2.73569e+07 2.66519e+07 2.57527e+07 2.37818e+07 2.16442e+07 2.04949e+07 1.80626e+07 1.7819e+07 1.74064e+07 1.59911e+07 1.51899e+07 1.48226e+07 1.89266e+07 1.47199e+07 1.43493e+07 1.41454e+07 1.41071e+07 1.40955e+07 1.37288e+07
threshold=3.5000000000000004 13.500000000000002 5.5000000000000009 4.5000000000000009 24.500000000000004 7.5000000000000009 26.500000000000004 6.5000000000000009 27.500000000000004 6.5000000000000009 17.500000000000004 12.500000000000002 1155.5000000000002 9.5000000000000018 6.5000000000000009 17.500000000000004 1406.5000000000002 1093.5000000000002 9.5000000000000018 1155.5000000000002 857.50000000000011 2.5000000000000004 6.5000000000000009 15.500000000000002 51.500000000000007 848.50000000000011 1.5000000000000002 1649.5000000000002 4.5000000000000009 4.5000000000000009
decision_type=2 2 2 2 2 2 2 2 2 2 2 2 2 2 2 2 2 2 2 2 2 2 2 2 2 2 2 2 2 2
left_child=1 3 4 26 10 8 9 11 22 15 16 -5 24 -13 29 21 28 -15 -7 -10 -17 -3 23 -4 -6 -11 -1 -18 -2 -12
right_child=2 6 5 7 12 18 -8 -9 19 25 14 13 -14 17 -16 20 27 -19 -20 -21 -22 -23 -24 -25 -26 -27 -28 -29 -30 -31
leaf_value=-130.10299276245965 -29.624598630333722 -79.46306707935949 37.561312861009078 -23.378182366606481 60.170514445355593 154.19991970623244 44.142798333956023 -122.25758773598814 117.78656601494566 -68.140790697623956 30.234925819217388 -104.11225370460369 109.95090878818911 -83.261506811045294 -8.4686155008715254 -16.625369125604632 66.117448257187661 -34.912860538767028 184.96143392986721 154.41402918497724 25.894522447784137 -19.15804523602128 32.55660191861292 101.1838631663567 115.55854903481224 -34.2265784697802 -164.06117654514776 -20.075776164020812 10.464016354171669 72.885913045341908
leaf_weight=144 247 62 55 77 376 544 236 633 429 261 154 376 221 217 86 192 59 120 288 186 164 128 48 312 55 239 828 28 136 148
leaf_count=144 247 62 55 77 376 544 236 633 429 261 154 376 221 217 86 192 59 120 288 186 164 128 48 312 55 239 828 28 136 148
internal_value=0 -86.2229 94.0218 -123.244 43.3368 135.125 -17.0605 -98.8002 111.116 -30.8692 14.1721 -80.0046 81.7162 -86.1199 37.9252 -11.583 -5.43694 -66.0454 164.848 128.864 2.96245 -38.8365 84.8143 91.6491 67.2386 -51.9298 -159.03 38.3771 -15.3895 51.1367
internal_weight=0 3677 3372 2395 1510 1862 1282 1423 1030 1046 858 790 652 713 388 546 470 337 832 615 356 190 415 367 431 500 972 87 383 302
internal_count=7049 3677 3372 2395 1510 1862 1282 1423 1030 1046 858 790 652 713 388 546 470 337 832 615 356 190 415 367 431 500 972 87 383 302
is_linear=0
shrinkage=0.1


Tree=6
num_leaves=31
num_cat=0
split_feature=0 2 0 2 2 2 0 0 2 2 0 0 6 6 0 2 6 6 6 1 2 6 4 2 6 0 1 1 4 5
split_gain=4.62875e+09 7.62609e+08 5.78324e+08 1.98404e+08 1.72487e+08 9.01766e+07 5.4851e+07 4.89224e+07 4.17178e+07 3.7478e+07 3.57451e+07 2.58367e+07 2.32071e+07 2.31614e+07 2.20641e+07 2.06023e+07 1.60492e+07 1.59377e+07 1.5935e+07 1.56637e+07 1.51866e+07 1.50939e+07 1.40194e+07 1.2639e+07 1.1492e+07 1.08529e+07 1.08121e+07 1.28138e+07 1.06802e+07 1.0585e+07
threshold=3.5000000000000004 13.500000000000002 6.5000000000000009 21.500000000000004 3.5000000000000004 23.500000000000004 2.5000000000000004 4.5000000000000009 51.500000000000007 35.500000000000007 4.5000000000000009 2.5000000000000004 1229.5000000000002 1019.5000000000001 2.5000000000000004 19.500000000000004 1295.5000000000002 1289.5000000000002 1406.5000000000002 4.5000000000000009 39.500000000000007 1295.5000000000002 13.500000000000002 44.500000000000007 1093.5000000000002 8.5000000000000018 6.5000000000000009 1.0000000180025095e-35 12.500000000000002 14.500000000000002
decision_type=2 2 2 2 2 2 2 2 2 2 2 2 2 2 2 2 2 2 2 2 2 2 2 2 2 2 2 2 2 2
left_child=1 4 3 7 22 11 13 17 10 16 -5 15 19 28 24 -3 -4 -2 -8 -12 -21 26 -1 29 -7 -11 27 -9 -6 -16
right_child=2 5 9 8 6 14 18 21 -10 25 12 -13 -14 -15 23 -17 -18 -19 -20 20 -22 -23 -24 -25 -26 -27 -28 -29 -30 -31
leaf_value=-125.09969670053874 -20.018920691808066 -62.237494534821735 107.50695628418292 44.675584273131001 -59.131711251395089 -23.704932833147481 -67.273378645826142 -23.349456438337057 129.67949263393015 140.36855507356196 89.723542643668964 -11.234770679768221 111.13187916531541 -84.79621282878675 47.188558977032891 -22.309714316186451 147.70747524030281 24.290907874512015 -14.28811870561519 42.481846836993576 97.505696181095004 72.923392346825935 -154.99995448771557 104.81208564213344 35.290175044282954 164.54523769001386 -39.008455207131128 40.959728249620511 -115.78603525797526 -0.8457627713680268
leaf_weight=209 318 336 401 345 35 111 283 35 138 379 266 324 217 494 162 210 132 109 71 209 66 101 628 28 47 364 22 270 675 64
leaf_count=209 318 336 401 345 35 111 283 35 138 379 266 324 217 494 162 210 132 109 71 209 66 101 628 28 47 364 22 270 675 64
internal_value=0 -77.6006 84.6197 52.3071 -110.92 -15.3544 -91.2499 15.2405 77.8445 137.697 71.3592 -33.6056 83.5042 -101.424 23.1858 -46.8807 117.463 -8.70798 -56.6464 72.4224 55.6876 39.1331 -147.534 41.4376 -6.15576 152.213 28.6964 33.58 -112.993 33.5859
internal_weight=0 3677 3372 2096 2395 1282 1558 855 1241 1276 1103 870 758 1204 412 546 533 427 354 541 275 428 837 254 158 743 327 305 710 226
internal_count=7049 3677 3372 2096 2395 1282 1558 855 1241 1276 1103 870 758 1204 412 546 533 427 354 541 275 428 837 254 158 743 327 305 710 226
is_linear=0
shrinkage=0.1


Tree=7
num_leaves=31
num_cat=0
split_feature=0 2 0 2 2 2 0 4 2 2 1 2 4 6 6 6 6 1 6 1 2 6 2 4 2 1 5 2 1 2
split_gain=3.74929e+09 6.23319e+08 4.69385e+08 1.15877e+08 1.13624e+08 9.91911e+07 8.88552e+07 3.98739e+07 3.27708e+07 3.09272e+07 3.05869e+07 2.73033e+07 2.57585e+07 1.99379e+07 1.86425e+07 1.66766e+07 1.55432e+07 1.54726e+07 1.54433e+07 1.53513e+07 1.27949e+07 1.26469e+07 1.16009e+07 1.13557e+07 1.13441e+07 1.02569e+07 1.01918e+07 1.01648e+07 9.9573e+06 9.81032e+06
threshold=3.5000000000000004 11.500000000000002 5.5000000000000009 20.500000000000004 24.500000000000004 3.5000000000000004 7.5000000000000009 12.500000000000002 35.500000000000007 13.500000000000002 1.5000000000000002 28.500000000000004 83.500000000000014 1078.5000000000002 857.50000000000011 1033.5000000000002 1144.5000000000002 6.5000000000000009 1346.5000000000002 3.5000000000000004 32.500000000000007 1649.5000000000002 7.5000000000000009 13.500000000000002 19.500000000000004 7.5000000000000009 11.500000000000002 47.500000000000007 1.0000000180025095e-35 19.500000000000004
decision_type=2 2 2 2 2 2 2 2 2 2 2 2 2 2 2 2 2 2 2 2 2 2 2 2 2 2 2 2 2 2
left_child=1 5 4 12 9 23 8 -7 16 -2 -9 14 19 -6 17 25 -4 -5 22 -3 -8 -17 -12 26 -18 28 -1 -15 -11 -30
right_child=2 3 6 11 13 7 20 10 -10 15 18 -13 -14 27 -16 21 24 -19 -20 -21 -22 -23 -24 -25 -26 -27 -28 -29 29 -31
leaf_value=-71.020971298217773 -19.651614314715069 -17.149344014464976 65.844017420597126 -1.9122138788497527 52.936062606521276 -11.912093796363244 112.98800089559823 -51.794416681677106 113.79581742018223 -45.682455627441414 -120.38902516395815 43.819506521245188 -73.075378445900625 79.553862543717415 19.90082991016445 54.137989616394044 53.146478308330884 -54.166010129716668 -74.913583888872623 -46.568355476167014 141.35932881068257 -5.1878114195709877 -95.571486695756519 -139.49996132391274 109.98094361787555 -39.716727889211555 -124.32078310960642 133.26778298311456 5.570377761439274 41.641946580600745
leaf_weight=46 240 286 439 153 414 65 214 160 373 25 310 177 239 195 201 196 44 90 212 467 618 44 480 628 174 38 163 43 190 125
leaf_count=46 240 286 439 153 414 65 214 160 373 25 310 177 239 195 201 196 44 90 212 467 618 44 480 628 174 38 163 43 190 125
internal_value=0 -69.8406 76.1577 -23.2663 34.727 -106.238 109.756 -88.132 90.1228 10.8144 -92.3956 10.6097 -44.4729 66.1949 -2.62938 22.6458 76.6829 -21.2655 -98.8788 -35.3946 134.062 43.2616 -105.31 -132.78 98.5098 9.5564 -112.59 89.2585 15.0634 19.8845
internal_weight=0 3677 3372 1613 1510 2064 1862 1227 1030 858 1162 621 992 652 444 618 657 243 1002 753 832 240 790 837 218 378 209 238 340 315
internal_count=7049 3677 3372 1613 1510 2064 1862 1227 1030 858 1162 621 992 652 444 618 657 243 1002 753 832 240 790 837 218 378 209 238 340 315
is_linear=0
shrinkage=0.1


Tree=8
num_leaves=31
num_cat=0
split_feature=0 2 0 2 2 2 0 1 0 0 2 6 2 6 0 2 1 2 6 6 5 6 2 1 6 6 1 4 0 6
split_gain=3.03692e+09 5.06317e+08 3.86466e+08 1.34364e+08 1.13115e+08 5.99766e+07 4.53348e+07 4.21136e+07 2.70488e+07 2.67443e+07 2.26486e+07 1.83882e+07 1.81387e+07 1.77422e+07 1.65803e+07 1.49765e+07 1.43069e+07 1.37169e+07 1.3976e+07 1.33465e+07 1.76517e+07 1.3316e+07 1.26695e+07 1.24315e+07 1.2402e+07 1.14564e+07 1.12001e+07 1.04585e+07 1.03889e+07 1.02912e+07
threshold=3.5000000000000004 13.500000000000002 6.5000000000000009 25.500000000000004 4.5000000000000009 26.500000000000004 4.5000000000000009 6.5000000000000009 2.5000000000000004 8.5000000000000018 51.500000000000007 1295.5000000000002 19.500000000000004 1387.5000000000002 4.5000000000000009 13.500000000000002 6.5000000000000009 56.500000000000007 1219.5000000000002 1433.5000000000002 5.5000000000000009 558.50000000000011 9.5000000000000018 1.0000000180025095e-35 1689.5000000000002 990.50000000000011 7.5000000000000009 57.500000000000007 2.5000000000000004 123.50000000000001
decision_type=2 2 2 2 2 2 2 2 2 2 2 2 2 2 2 2 2 2 2 2 2 2 2 2 2 2 2 2 2 2
left_child=1 4 3 6 19 8 15 13 12 17 14 16 -3 22 -5 -2 23 18 -4 -1 -21 26 29 -8 -15 27 -16 -14 -7 -6
right_child=2 5 9 10 7 28 11 -9 -10 -11 -12 -13 25 24 21 -17 -18 -19 -20 20 -22 -23 -24 -25 -26 -27 -28 -29 -30 -31
leaf_value=-121.67652042681075 -26.462541695572867 -51.373887312820273 86.513736435157952 40.988513521403704 -22.142495964313376 2.9564300336335836 -19.194681034088134 -91.262881379632219 -2.7005467076478396 129.87835501022414 107.08727353483008 68.145742408701238 -17.696514665252632 -18.028440903669953 68.671202037069534 9.2527567094713046 -24.601256196042328 137.65865505043118 118.15799851319728 -37.910860032879789 -110.52227554340674 83.785563901771795 -50.17522834313462 39.553005340217886 -96.854282545006797 10.568905834032565 20.366414385371741 -70.781103061676035 47.859218966364864 -84.711742959582523
leaf_weight=803 174 336 491 237 29 76 40 633 418 503 138 149 144 151 144 361 47 87 195 46 123 372 306 362 23 98 72 50 160 281
leaf_count=803 174 336 491 237 29 76 40 633 418 503 138 149 144 151 144 361 47 87 195 46 123 372 306 362 23 98 72 50 160 281
internal_value=0 -62.8565 68.5419 42.1275 -90.0056 -12.1372 18.7852 -72.0443 -22.4111 111.931 69.5904 37.7054 -35.5306 -56.6452 63.3182 -2.36306 27.6039 100.253 95.5088 -116.301 -90.7582 72.3185 -64.61 33.7075 -28.4479 -17.3 52.5696 -31.3781 33.399 -78.8585
internal_weight=0 3677 3372 2096 2395 1282 1133 1423 1046 1276 963 598 628 790 825 535 449 773 686 972 169 588 616 402 174 292 216 194 236 310
internal_count=7049 3677 3372 2096 2395 1282 1133 1423 1046 1276 963 598 628 790 825 535 449 773 686 972 169 588 616 402 174 292 216 194 236 310
is_linear=0
shrinkage=0.1


Tree=9
num_leaves=31
num_cat=0
split_feature=0 2 0 2 2 2 2 0 6 2 0 0 1 1 2 6 6 2 6 4 6 2 6 4 4 6 4 2 5 6
split_gain=2.45991e+09 4.12451e+08 3.13633e+08 7.80511e+07 7.783e+07 6.61037e+07 5.85026e+07 3.13888e+07 2.68151e+07 2.59597e+07 2.30965e+07 1.89935e+07 1.86533e+07 1.58934e+07 1.37624e+07 1.41448e+07 1.28623e+07 1.27426e+07 1.21694e+07 1.21027e+07 1.1779e+07 1.09147e+07 1.03905e+07 1.03267e+07 1.17551e+07 9.74948e+06 9.50922e+06 8.6803e+06 1.03213e+07 8.57606e+06
threshold=3.5000000000000004 11.500000000000002 5.5000000000000009 19.500000000000004 17.500000000000004 3.5000000000000004 28.500000000000004 2.5000000000000004 990.50000000000011 27.500000000000004 7.5000000000000009 2.5000000000000004 4.5000000000000009 1.0000000180025095e-35 19.500000000000004 997.50000000000011 1351.5000000000002 25.500000000000004 863.50000000000011 83.500000000000014 1406.5000000000002 43.500000000000007 1649.5000000000002 13.500000000000002 30.500000000000004 717.50000000000011 18.500000000000004 28.500000000000004 17.500000000000004 888.50000000000011
decision_type=2 2 2 2 2 2 2 2 2 2 2 2 2 2 2 2 2 2 2 2 2 2 2 2 2 2 2 2 2 2
left_child=1 5 4 11 20 26 14 16 17 12 21 19 13 -6 -4 -16 -7 -5 -11 29 -2 -8 -22 -9 -25 -14 -1 -10 -29 -3
right_child=2 3 6 8 9 7 10 23 27 18 -12 -13 25 -15 15 -17 -18 -19 -20 -21 22 -23 -24 24 -26 -27 -28 28 -30 -31
leaf_value=-93.284442331039756 -13.495439770265286 -56.379487805234071 38.03880983650685 -22.827242391575748 -38.870173662359065 -85.674310909978317 77.866063114714166 11.321945123111501 20.185603401108917 45.030610611798956 113.56150162602989 -19.311172720690266 -22.257681475616085 49.269235142616381 56.703105668048465 93.449252254194263 -58.062403589899091 11.730243362079968 76.015078185351626 -72.420828228462028 51.072833426524021 108.13072865651753 -22.900211541993279 -83.557947422907901 -32.795962099935501 21.582987962091778 -115.64824093862413 94.17337085723878 15.819053228970231 -26.977033814909234
leaf_weight=292 383 180 160 271 22 758 416 34 203 278 691 329 82 292 245 183 217 176 233 164 59 167 28 65 153 133 545 40 29 221
leaf_count=292 383 180 160 271 22 758 416 34 203 278 691 329 82 292 245 183 217 176 233 164 59 167 28 65 153 133 545 40 29 221
internal_value=0 -56.5709 61.6877 -18.685 27.8214 -86.1784 89.1519 -71.3975 5.84382 43.0836 101.194 -38.4123 27.5555 43.0939 63.0607 72.4147 -79.5289 -9.22072 59.1586 -49.535 -5.95035 86.5354 27.2654 -39.9369 -47.9314 4.86236 -107.846 30.6006 61.2418 -40.1751
internal_weight=0 3677 3372 1613 1510 2064 1862 1227 719 1040 1274 894 529 314 588 428 975 447 511 565 470 583 87 252 218 215 837 272 69 401
internal_count=7049 3677 3372 1613 1510 2064 1862 1227 719 1040 1274 894 529 314 588 428 975 447 511 565 470 583 87 252 218 215 837 272 69 401
is_linear=0
shrinkage=0.1


Tree=10
num_leaves=31
num_cat=0
split_feature=0 2 0 2 2 0 1 4 0 6 2 0 2 6 4 4 4 6 2 1 2 6 6 6 1 6 1 2 2 4
split_gain=1.99253e+09 3.36023e+08 2.59208e+08 8.99082e+07 8.51974e+07 3.94078e+07 3.09108e+07 3.03742e+07 2.63546e+07 2.03078e+07 1.89175e+07 1.84762e+07 1.66391e+07 1.53838e+07 1.29955e+07 1.23515e+07 1.22929e+07 1.16881e+07 1.09704e+07 2.29915e+07 1.07979e+07 1.04939e+07 1.82928e+07 1.03065e+07 1.00982e+07 1.00976e+07 9.59818e+06 9.72121e+06 9.2441e+06 8.93032e+06
threshold=3.5000000000000004 14.500000000000002 6.5000000000000009 20.500000000000004 7.5000000000000009 2.5000000000000004 6.5000000000000009 12.500000000000002 4.5000000000000009 1229.5000000000002 40.500000000000007 4.5000000000000009 27.500000000000004 1433.5000000000002 115.50000000000001 90.500000000000014 55.500000000000007 1122.5000000000002 38.500000000000007 7.5000000000000009 35.500000000000007 1590.5000000000002 1562.5000000000002 1029.5000000000002 4.5000000000000009 882.50000000000011 1.5000000000000002 1.0000000180025095e-35 30.500000000000004 69.500000000000014
decision_type=2 2 2 2 2 2 2 2 2 2 2 2 2 2 2 2 2 2 2 2 2 2 2 2 2 2 2 2 2 2
left_child=1 4 3 11 7 16 23 -1 28 18 17 -2 -7 14 15 26 -3 -4 19 -10 -11 22 -15 -6 -17 29 27 -9 -5 -18
right_child=2 5 10 8 6 12 -8 13 9 20 -12 -13 -14 21 -16 24 25 -19 -20 -21 -22 -23 -24 -25 -26 -27 -28 -29 -30 -31
leaf_value=15.528300574973779 -8.0167140303850175 -12.125323343633715 72.284479880850228 16.267106599530738 -47.556168075971364 2.8921196591138219 -69.486273435418099 -122.84528763382524 54.711567158237145 69.277813561236272 105.95142434607982 22.774839267228781 43.609532047720521 -66.17019933426019 -125.15751192929935 7.0045101211184546 -101.69481409920587 98.429523368260661 71.525758883812856 3.6874776145159189 113.13121163168071 -91.741649350253027 34.639929823441939 -21.367335376011798 -77.925009663899743 -20.071932054111979 -99.866779259296322 -55.002579667887737 46.61542583343595 -43.533847186541323
leaf_weight=27 400 401 507 241 379 383 560 27 351 183 511 380 136 99 139 21 36 258 170 118 81 99 22 249 42 131 730 97 172 99
leaf_count=27 400 401 507 241 379 383 560 27 351 183 511 380 136 99 139 21 36 258 170 118 81 99 22 249 42 131 730 97 172 99
internal_value=0 -50.9138 55.519 33.8863 -71.7728 -7.10284 -52.4045 -89.4316 49.8313 59.4017 91.0535 6.9843 13.5618 -91.6526 -96.6643 -92.3452 -23.1822 81.102 49.7625 41.8739 82.7328 -67.5963 -47.8411 -37.1724 -49.6152 -39.8507 -95.4974 -69.7748 28.9061 -59.0434
internal_weight=0 3677 3372 2096 2491 1186 1188 1303 1316 903 1276 780 519 1276 1056 917 667 765 639 469 264 220 121 628 63 266 854 124 413 135
internal_count=7049 3677 3372 2096 2491 1186 1188 1303 1316 903 1276 780 519 1276 1056 917 667 765 639 469 264 220 121 628 63 266 854 124 413 135
is_linear=0
shrinkage=0.1


Tree=11
num_leaves=31
num_cat=0
split_feature=0 2 0 2 2 2 2 4 6 1 0 6 4 2 1 1 1 6 1 2 1 6 4 4 5 6 0 4 5 2
split_gain=1.61395e+09 2.72647e+08 2.09958e+08 7.53752e+07 5.43824e+07 4.47629e+07 2.89307e+07 2.30793e+07 2.05626e+07 1.83697e+07 1.76526e+07 1.64128e+07 1.44349e+07 1.19326e+07 1.14138e+07 1.13494e+07 1.15146e+07 1.05142e+07 1.0409e+07 1.21535e+07 1.00881e+07 9.35412e+06 8.7408e+06 3.45585e+07 8.2306e+06 7.8563e+06 7.83964e+06 7.68285e+06 8.20541e+06 7.62205e+06
threshold=3.5000000000000004 11.500000000000002 6.5000000000000009 27.500000000000004 20.500000000000004 3.5000000000000004 13.500000000000002 12.500000000000002 1033.5000000000002 1.5000000000000002 8.5000000000000018 990.50000000000011 83.500000000000014 51.500000000000007 6.5000000000000009 7.5000000000000009 1.0000000180025095e-35 1649.5000000000002 7.5000000000000009 38.500000000000007 3.5000000000000004 1219.5000000000002 34.500000000000007 61.500000000000007 10.500000000000002 618.50000000000011 2.5000000000000004 13.500000000000002 29.500000000000004 56.500000000000007
decision_type=2 2 2 2 2 2 2 2 2 2 2 2 2 2 2 2 2 2 2 2 2 2 2 2 2 2 2 2 2 2
left_child=1 5 3 6 12 27 -2 -7 15 -9 21 26 20 18 17 16 -8 -10 -5 -20 -3 29 -11 25 -17 -24 -6 28 -1 -4
right_child=2 4 10 13 11 7 8 9 14 22 -12 -13 -14 -15 -16 24 -18 -19 19 -21 -22 -23 23 -25 -26 -27 -28 -29 -30 -31
leaf_value=-45.956652936935427 -14.280363455290123 -7.960862318118969 61.314504236092148 58.264708924014343 -19.122643116687208 0.25610419053297778 -36.253384580367651 -29.510595909357075 57.250819253899024 -80.493384997374349 96.529031439495853 29.023239137974191 -50.958995130171843 80.929929014219752 5.5538941955566408 -2.4180557341802693 20.118596166136101 9.9078257845159161 14.279228851139147 58.335870862890175 -31.80938404887851 90.182026418197992 -45.663115501403809 -70.111458885832732 -77.922015172784995 7.0624912430968472 9.3895246790515046 -93.252161698413502 -86.721286602168121 97.270797740879345
leaf_weight=80 263 286 491 427 188 65 39 160 265 294 503 235 239 138 75 42 511 57 149 108 467 215 44 585 22 79 198 628 129 67
leaf_count=80 263 286 491 427 188 65 39 160 265 294 503 235 239 138 75 42 511 57 149 108 467 215 44 585 22 79 198 628 129 67
internal_value=0 -45.8224 49.9671 30.4977 -15.0195 -69.8946 15.2652 -57.7315 22.9512 -60.9752 81.9481 8.18765 -29.5474 54.1061 40.687 11.4835 16.1213 48.8702 48.6943 32.7933 -22.7514 72.4602 -65.9995 -59.9809 -28.3725 -11.7987 -4.49723 -87.7251 -71.1176 65.6318
internal_weight=0 3677 3372 2096 1613 2064 1274 1227 1011 1162 1276 621 992 822 397 614 550 322 684 257 753 773 1002 708 64 123 386 837 209 558
internal_count=7049 3677 3372 2096 1613 2064 1274 1227 1011 1162 1276 621 992 822 397 614 550 322 684 257 753 773 1002 708 64 123 386 837 209 558
is_linear=0
shrinkage=0.1


Tree=12
num_leaves=31
num_cat=0
split_feature=2 0 0 2 0 0 2 1 6 6 4 6 6 0 6 6 6 4 4 4 5 5 6 6 2 1 4 4 4 1
split_gain=1.31267e+09 2.55921e+08 2.07036e+08 4.82154e+07 4.11532e+07 3.29933e+07 2.26758e+07 2.0053e+07 1.98315e+07 1.8791e+07 1.74851e+07 1.38368e+07 1.33009e+07 1.24089e+07 1.33753e+07 1.02647e+07 1.01066e+07 9.96151e+06 1.15906e+07 2.9484e+07 9.54055e+06 9.42635e+06 9.07307e+06 1.73346e+07 8.44602e+06 1.1673e+07 8.36932e+06 8.48538e+06 7.94423e+06 7.70418e+06
threshold=19.500000000000004 2.5000000000000004 4.5000000000000009 7.5000000000000009 6.5000000000000009 4.5000000000000009 28.500000000000004 6.5000000000000009 1289.5000000000002 1229.5000000000002 12.500000000000002 836.50000000000011 1394.5000000000002 9.5000000000000018 1219.5000000000002 857.50000000000011 1649.5000000000002 13.500000000000002 28.500000000000004 56.500000000000007 3.5000000000000004 8.5000000000000018 1655.5000000000002 1569.5000000000002 27.500000000000004 5.5000000000000009 115.50000000000001 90.500000000000014 60.500000000000007 1.0000000180025095e-35
decision_type=2 2 2 2 2 2 2 2 2 2 2 2 2 2 2 2 2 2 2 2 2 2 2 2 2 2 2 2 2 2
left_child=1 3 6 10 9 8 7 15 17 24 -1 20 26 14 -6 -2 -10 -3 -19 -20 -5 22 23 -14 25 -4 27 -12 -9 -7
right_child=2 5 4 11 13 29 -8 28 16 -11 12 -13 21 -15 -16 -17 -18 18 19 -21 -22 -23 -24 -25 -26 -27 -28 -29 -30 -31
leaf_value=15.84913345972697 1.0712646219465467 4.3703701908148611 37.652933847773205 -28.174751867418706 62.844667694226047 -19.54915931535804 31.028564322025115 -6.2818854449417794 20.348752553345729 69.960481462926211 -80.317319063123719 -35.50343181584406 -47.392752980126275 93.876762065622543 89.72787386038172 30.891435559702593 -27.245864373142439 -51.156640895391476 22.625699101850905 -36.222407187707724 -63.489917842236395 -70.720998412756614 -86.494999249776214 59.326013017737353 47.58872694932186 -10.906278988894295 -104.90156308687652 -40.031724728963212 -39.651701409600001 24.094826255680911
leaf_weight=21 252 103 182 92 682 46 393 203 183 277 788 596 45 288 254 213 59 173 116 320 454 139 21 23 427 68 130 56 110 335
leaf_count=21 252 103 182 92 682 46 393 203 183 277 788 596 45 288 254 213 59 173 116 320 454 139 21 23 427 68 130 56 110 335
internal_value=0 -41.0555 45.3584 -60.815 63.5896 -6.05073 11.4493 1.55903 -15.9856 48.0195 -74.6124 -46.039 -76.1929 75.725 70.1399 14.7308 8.74511 -24.3912 -29.2556 -20.5656 -57.5394 -54.4508 -29.0401 -11.2967 39.0422 24.4448 -81.2824 -77.6443 -18.0093 18.8255
internal_weight=0 3700 3349 2365 2178 1335 1171 778 954 954 1223 1142 1202 1224 936 465 242 712 609 436 546 228 89 68 677 250 974 844 313 381
internal_count=7049 3700 3349 2365 2178 1335 1171 778 954 954 1223 1142 1202 1224 936 465 242 712 609 436 546 228 89 68 677 250 974 844 313 381
is_linear=0
shrinkage=0.1


Tree=13
num_leaves=31
num_cat=0
split_feature=0 2 0 0 2 2 0 6 2 5 0 6 2 1 1 2 4 4 2 1 0 6 6 5 4 6 6 4 6 4
split_gain=1.06408e+09 1.85641e+08 1.42908e+08 4.72339e+07 3.76484e+07 2.91328e+07 2.37709e+07 1.56024e+07 1.5342e+07 1.34984e+07 1.2317e+07 1.22185e+07 1.10166e+07 1.09091e+07 1.00534e+07 1.00767e+07 9.21942e+06 9.94024e+06 9.05094e+06 8.8829e+06 8.71638e+06 8.5339e+06 8.05587e+06 8.68232e+06 7.99928e+06 7.99783e+06 7.04528e+06 7.01608e+06 6.78e+06 7.16706e+06
threshold=3.5000000000000004 14.500000000000002 5.5000000000000009 1.5000000000000002 17.500000000000004 39.500000000000007 2.5000000000000004 863.50000000000011 6.5000000000000009 35.500000000000007 7.5000000000000009 1029.5000000000002 44.500000000000007 3.5000000000000004 7.5000000000000009 21.500000000000004 38.500000000000007 108.50000000000001 48.500000000000007 2.5000000000000004 4.5000000000000009 978.50000000000011 857.50000000000011 14.500000000000002 57.500000000000007 1406.5000000000002 1649.5000000000002 13.500000000000002 145.50000000000003 55.500000000000007
decision_type=2 2 2 2 2 2 2 2 2 2 2 2 2 2 2 2 2 2 2 2 2 2 2 2 2 2 2 2 2 2
left_child=1 3 4 13 25 10 21 9 16 -6 14 -10 22 27 15 -4 19 -18 20 -5 -9 24 23 -8 -3 28 -27 -1 -2 -30
right_child=2 6 5 8 7 -7 12 18 11 -11 -12 -13 -14 -15 -16 -17 17 -19 -20 -21 -22 -23 -24 -25 -26 26 -28 -29 29 -31
leaf_value=-57.769188840214809 23.580220210298577 -15.04780472975132 29.795445090096514 -61.720603244709515 19.699203780945393 75.431618796723669 6.8741218176265226 22.117268331561771 -40.345914081659302 -60.296320793845439 63.823538947929094 -15.306333205278642 72.416567407335549 -55.439528302083673 18.133821521006841 56.528712413628142 -24.818810847910441 -72.691226748566137 77.722004272978197 -121.83646748065949 50.045625721058506 -3.3724610552025553 20.762447598856326 -34.944939586045088 -44.087827687156505 41.197209506923876 -19.714917516708375 -79.515475029574645 -3.7754012329513964 -33.136065600249943
leaf_weight=205 47 242 212 106 512 689 177 224 489 22 398 324 28 608 142 421 123 67 59 32 223 269 245 69 156 59 28 537 185 151
leaf_count=205 47 242 212 106 512 689 177 224 489 22 398 324 28 608 142 421 123 67 59 32 223 269 245 69 156 59 28 537 185 151
internal_value=0 -37.2066 40.572 -52.7107 17.7115 59.1108 -4.6429 28.3265 -37.7323 16.4035 49.5243 -30.367 11.4065 -65.3702 42.1809 47.5754 -55.9883 -41.7001 40.9092 -75.6605 36.0502 -17.1311 7.92733 -4.85561 -26.4303 -5.77682 21.5933 -73.5074 -11.9941 -16.9702
internal_weight=0 3677 3372 2491 1510 1862 1186 1040 1141 534 1173 813 519 1350 775 633 328 190 506 138 447 667 491 246 398 470 87 742 383 336
internal_count=7049 3677 3372 2491 1510 1862 1186 1040 1141 534 1173 813 519 1350 775 633 328 190 506 138 447 667 491 246 398 470 87 742 383 336
is_linear=0
shrinkage=0.1


Tree=14
num_leaves=31
num_cat=0
split_feature=2 0 0 2 2 1 0 6 4 6 6 6 6 6 2 1 0 0 5 6 4 4 4 5 5 4 4 2 1 1
split_gain=8.70311e+08 1.70688e+08 1.35465e+08 3.06596e+07 2.91216e+07 2.62573e+07 2.17103e+07 1.61217e+07 1.41443e+07 1.38791e+07 1.1908e+07 1.07605e+07 9.95194e+06 9.82244e+06 9.61843e+06 1.10637e+07 9.23817e+06 8.61962e+06 7.80516e+06 7.7139e+06 7.61671e+06 1.08e+07 2.28995e+07 9.78938e+06 7.44529e+06 7.2887e+06 8.10583e+06 7.25367e+06 6.36529e+06 7.10444e+06
threshold=19.500000000000004 2.5000000000000004 4.5000000000000009 7.5000000000000009 35.500000000000007 4.5000000000000009 4.5000000000000009 1004.5000000000001 12.500000000000002 1289.5000000000002 1219.5000000000002 1394.5000000000002 796.50000000000011 836.50000000000011 28.500000000000004 6.5000000000000009 9.5000000000000018 7.5000000000000009 5.5000000000000009 1643.5000000000002 16.500000000000004 28.500000000000004 56.500000000000007 7.5000000000000009 3.5000000000000004 62.500000000000007 77.500000000000014 48.500000000000007 6.5000000000000009 1.0000000180025095e-35
decision_type=2 2 2 2 2 2 2 2 2 2 2 2 2 2 2 2 2 2 2 2 2 2 2 2 2 2 2 2 2 2
left_child=1 3 7 8 5 12 9 14 -1 20 16 -10 -4 24 15 -2 -6 -7 -13 -11 23 -22 -23 -3 -5 -24 -27 -9 29 -8
right_child=2 6 4 13 10 17 28 27 11 19 -12 18 -14 -15 -16 -17 -18 -19 -20 -21 21 22 25 -25 -26 26 -28 -29 -30 -31
leaf_value=20.792794690813338 4.2005203557341071 -27.082356345436793 40.145177103166532 -21.532867372554282 51.787498195019673 14.384907744616866 -18.330792866582456 20.560373831474866 -66.568242637234789 18.266167752477859 82.866713488922429 -13.135140650822567 63.70969096932037 -28.907165566626812 16.71021822645309 -26.902394611277483 77.024845013869438 55.399246750871342 -54.118529009672763 -22.632813690554713 -46.717370706200597 21.722800903484739 -57.181514622035778 31.095855406464125 -52.73004707943501 25.196732768416407 -28.797923652068626 67.93940338134766 -39.577115116119387 23.740365314786398
leaf_weight=21 292 55 354 92 613 351 46 421 974 180 247 65 363 596 235 188 190 60 163 62 160 116 76 61 454 32 212 35 20 315
leaf_count=21 292 55 354 92 613 351 46 421 974 180 247 65 363 596 235 188 190 60 163 62 160 116 76 61 454 32 212 35 20 315
internal_value=0 -33.4295 36.9332 -49.5666 51.6803 40.524 -4.84206 9.50435 -60.569 -12.901 63.6653 -61.9905 52.0753 -37.7838 0.13399 -7.98145 57.759 20.3724 -42.4347 7.78792 -19.933 -24.496 -16.3413 3.51136 -47.4734 -30.1396 -21.7167 24.1969 15.3372 18.3795
internal_weight=0 3700 3349 2365 2178 1128 1335 1171 1223 954 1050 1202 717 1142 715 480 803 411 228 242 712 596 436 116 546 320 244 456 381 361
internal_count=7049 3700 3349 2365 2178 1128 1335 1171 1223 954 1050 1202 717 1142 715 480 803 411 228 242 712 596 436 116 546 320 244 456 381 361
is_linear=0
shrinkage=0.1


Tree=15
num_leaves=31
num_cat=0
split_feature=2 0 0 2 0 0 0 6 6 6 6 0 6 5 2 5 2 6 6 6 4 6 4 4 2 4 4 4 6 5
split_gain=7.04951e+08 1.38257e+08 1.09727e+08 2.4982e+07 2.46538e+07 1.75854e+07 1.3838e+07 1.1833e+07 1.12421e+07 1.03684e+07 9.07593e+06 8.54884e+06 9.47082e+06 7.16569e+06 6.71492e+06 6.65592e+06 6.34073e+06 6.45512e+06 6.29273e+06 6.23041e+06 6.20993e+06 7.77464e+06 6.97164e+06 9.55205e+06 8.33936e+06 6.48294e+06 6.12773e+06 1.12888e+07 6.00485e+06 5.97156e+06
threshold=19.500000000000004 2.5000000000000004 4.5000000000000009 3.5000000000000004 6.5000000000000009 4.5000000000000009 2.5000000000000004 1229.5000000000002 1289.5000000000002 1019.5000000000001 857.50000000000011 10.500000000000002 1219.5000000000002 27.500000000000004 9.5000000000000018 4.5000000000000009 56.500000000000007 162.50000000000003 1649.5000000000002 796.50000000000011 83.500000000000014 1696.5000000000002 28.500000000000004 60.500000000000007 9.5000000000000018 73.500000000000014 57.500000000000007 47.500000000000007 215.50000000000003 4.5000000000000009
decision_type=2 2 2 2 2 2 2 2 2 2 2 2 2 2 2 2 2 2 2 2 2 2 2 2 2 2 2 2 2 2
left_child=1 3 6 -1 7 8 -2 -4 14 29 13 12 16 19 15 -3 17 -6 -10 28 21 22 -11 24 -24 -25 27 -16 -8 -5
right_child=2 5 4 9 11 -7 10 -9 18 20 -12 -13 -14 -15 26 -17 -18 -19 -20 -21 -22 -23 23 25 -26 -27 -28 -29 -30 -31
leaf_value=-58.652041599158089 -7.5040810523473702 -62.264913477663129 27.337159310838146 -31.354156696297821 64.524829724099902 13.803440197684322 -10.826265314388813 51.872200130297394 16.165264062412451 -31.868777651965299 26.744820995681785 78.613935618204621 68.539400901937654 -47.53575051029523 -10.061119197242448 -18.973059183709761 67.072205996513375 38.633127178295574 -21.390428357205153 -45.561767730712894 -42.110751009890528 -73.873197533534125 71.378842461627457 -39.085687715157697 1.7212127489202165 5.2805287352148094 -24.960322884164874 53.416954305095061 19.044611930933552 -49.273310753942475
leaf_weight=825 368 61 677 263 117 381 89 277 183 187 394 146 283 24 291 85 134 544 59 20 198 26 23 87 68 53 244 31 276 635
leaf_count=825 368 61 677 263 117 381 89 277 183 187 394 146 283 24 291 85 134 544 59 20 198 26 23 87 68 53 244 31 276 635
internal_value=0 -30.0866 33.2399 -44.61 46.5122 -4.35785 8.55392 34.4611 -11.6109 -37.0874 15.913 55.9051 52.8295 5.47844 -17.9397 -37.0608 47.2371 43.2161 7.00912 8.78322 -27.3831 -20.8153 -17.5151 -5.89537 19.327 -22.2899 -13.0074 -3.94988 11.761 -44.0253
internal_weight=0 3700 3349 2365 2178 1335 1171 954 954 1540 803 1224 1078 409 712 146 795 661 242 385 642 444 418 231 91 140 566 322 365 898
internal_count=7049 3700 3349 2365 2178 1335 1171 954 954 1540 803 1224 1078 409 712 146 795 661 242 385 642 444 418 231 91 140 566 322 365 898
is_linear=0
shrinkage=0.1


Tree=16
num_leaves=31
num_cat=0
split_feature=2 0 0 2 1 0 2 2 2 6 6 1 1 6 1 1 0 4 4 4 2 2 6 4 5 1 5 0 6 6
split_gain=5.77223e+08 1.38791e+08 6.275e+07 2.82482e+07 2.64869e+07 2.13529e+07 1.332e+07 1.00427e+07 7.9027e+06 7.90041e+06 7.91816e+06 7.83047e+06 7.81712e+06 7.78573e+06 7.26887e+06 1.09978e+07 7.09231e+06 6.60926e+06 6.4324e+06 1.88194e+07 1.09633e+07 6.32147e+06 5.53273e+06 5.21055e+06 5.57138e+06 4.92619e+06 4.48419e+06 5.05212e+06 4.39185e+06 4.3134e+06
threshold=15.500000000000002 4.5000000000000009 2.5000000000000004 33.500000000000007 6.5000000000000009 2.5000000000000004 3.5000000000000004 46.500000000000007 5.5000000000000009 1048.5000000000002 1678.5000000000002 6.5000000000000009 3.5000000000000004 1224.5000000000002 6.5000000000000009 17.500000000000004 9.5000000000000018 116.50000000000001 61.500000000000007 34.500000000000007 7.5000000000000009 27.500000000000004 85.500000000000014 13.500000000000002 29.500000000000004 1.0000000180025095e-35 3.5000000000000004 1.5000000000000002 1282.5000000000002 1406.5000000000002
decision_type=2 2 2 2 2 2 2 2 2 2 2 2 2 2 2 2 2 2 2 2 2 2 2 2 2 2 2 2 2 2
left_child=2 5 6 4 9 14 22 11 -4 21 -11 17 29 16 -2 -16 -5 25 19 -8 -21 -3 -1 24 -24 -7 27 -20 -14 -10
right_child=1 3 8 13 -6 7 18 -9 12 10 -12 -13 28 -15 15 -17 -18 -19 26 20 -22 -23 23 -25 -26 -27 -28 -29 -30 -31
leaf_value=-10.630213750203453 3.1662050215850979 22.022457407621676 -46.464370221606757 41.563967013273313 -3.0832675395693099 -23.513605671458777 -40.638184015781064 45.568377253375473 -7.0496907029955764 52.357030827539006 7.735101850297716 -4.8012122264033872 -33.727116441034504 65.40808792358574 -46.362021136816061 -9.8627832529271497 62.690591756522082 60.447257175445557 -50.132297360455553 64.812676577134567 -10.716084217084081 44.061075866316997 -19.388186804040686 -59.149747523655321 -53.429634124040604 14.578925753219815 -45.400490066432504 7.0911713229285347 2.7286743890671503 14.382172250747681
leaf_weight=30 213 418 59 695 210 36 395 79 512 342 45 304 155 283 112 314 206 30 27 22 152 189 77 590 128 596 637 36 42 115
leaf_count=30 213 418 59 695 210 36 395 79 512 342 45 304 155 283 112 314 206 30 27 22 152 189 77 590 128 596 637 36 42 115
internal_value=0 24.4677 -33.4674 39.9712 29.1857 2.48292 -42.8952 11.2883 -11.1098 36.0031 47.1684 8.48489 -8.57839 50.9389 -11.9171 -19.4588 46.3942 14.5861 -36.4645 -28.5677 -1.16647 28.8846 -52.7868 -54.3777 -40.6433 12.4091 -42.8834 -17.4332 -25.9548 -3.11881
internal_weight=0 4072 2977 2388 1204 1684 2094 1045 883 994 387 966 824 1184 639 426 901 662 1269 569 174 607 825 795 205 632 700 63 197 627
internal_count=7049 4072 2977 2388 1204 1684 2094 1045 883 994 387 966 824 1184 639 426 901 662 1269 569 174 607 825 795 205 632 700 63 197 627
is_linear=0
shrinkage=0.1


Tree=17
num_leaves=31
num_cat=0
split_feature=2 0 0 2 1 2 1 2 6 6 6 2 1 6 6 0 1 0 4 6 6 6 4 4 4 4 4 6 6 2
split_gain=4.67551e+08 1.12421e+08 5.08275e+07 2.31007e+07 1.90292e+07 1.83245e+07 1.90555e+07 1.07892e+07 8.29475e+06 6.91523e+06 6.90303e+06 6.40119e+06 6.33187e+06 5.47818e+06 5.16863e+06 5.11655e+06 4.89135e+06 4.83516e+06 5.63266e+06 5.81036e+06 4.75671e+06 7.73118e+06 4.50009e+06 1.11812e+07 2.56947e+07 1.69835e+07 1.07002e+07 4.32669e+06 5.37009e+06 5.20296e+06
threshold=15.500000000000002 4.5000000000000009 2.5000000000000004 35.500000000000007 6.5000000000000009 28.500000000000004 4.5000000000000009 3.5000000000000004 857.50000000000011 1219.5000000000002 796.50000000000011 5.5000000000000009 3.5000000000000004 830.50000000000011 1678.5000000000002 10.500000000000002 1.0000000180025095e-35 6.5000000000000009 51.500000000000007 565.50000000000011 495.50000000000006 422.50000000000006 68.500000000000014 71.500000000000014 115.50000000000001 73.500000000000014 42.500000000000007 1295.5000000000002 1274.5000000000002 29.500000000000004
decision_type=2 2 2 2 2 2 2 2 2 2 2 2 2 2 2 2 2 2 2 2 2 2 2 2 2 2 2 2 2 2
left_child=2 5 7 4 10 6 16 22 -8 15 -3 -4 -13 -9 27 -5 -2 18 -6 -20 21 -7 26 -24 25 -25 -1 28 29 -12
right_child=1 3 11 9 17 20 8 13 -10 -11 14 12 -14 -15 -16 -17 -18 -19 19 -21 -22 -23 23 24 -26 -27 -28 -29 -30 -31
leaf_value=-44.494770708184497 -23.653260238354022 24.867399248262732 -41.81793354729475 39.463012936364976 9.8542857701128188 16.770749888358974 -24.42107476272697 -39.74494059153286 -3.1977493989467622 61.709302308781425 32.141884544401456 -2.8069261254020859 -23.359334202829352 -26.585922389901327 9.4476071000099182 63.044810683772248 13.077784448121358 21.839642429492056 -69.259613667363709 -9.4041924459284001 29.325056169909455 -46.649809430993123 -74.088891415134341 -36.894304128793571 -65.700686412992937 77.404618386121911 30.173582468032841 53.595903547872012 -12.265471600402485 68.83966399232547
leaf_weight=475 39 533 59 697 88 117 377 601 360 247 198 627 197 668 48 106 515 85 23 55 253 23 173 26 105 26 20 238 22 48
leaf_count=475 39 533 59 697 88 117 377 601 360 247 198 627 197 668 48 106 515 85 23 55 253 23 173 26 105 26 20 238 22 48
internal_value=0 22.021 -30.1207 35.9741 27.2612 2.23463 -3.5208 -38.6057 -14.0542 47.0768 32.9919 -9.99886 -7.72055 -32.8181 40.8084 42.5759 10.492 2.44361 -7.4881 -27.0539 21.1411 6.35166 -47.5082 -56.5536 -37.2312 20.2552 -41.4779 43.7834 35.0692 39.3024
internal_weight=0 4072 2977 2388 1338 1684 1291 2094 737 1050 1087 883 824 1269 554 803 554 251 166 78 393 140 825 330 157 52 495 506 268 246
internal_count=7049 4072 2977 2388 1338 1684 1291 2094 737 1050 1087 883 824 1269 554 803 554 251 166 78 393 140 825 330 157 52 495 506 268 246
is_linear=0
shrinkage=0.1


Tree=18
num_leaves=31
num_cat=0
split_feature=2 0 0 6 2 4 5 2 2 2 1 6 6 6 4 5 4 4 6 1 2 4 4 4 4 1 4 4 1 4
split_gain=3.82355e+08 7.22138e+07 5.94439e+07 1.52315e+07 1.47482e+07 1.31025e+07 1.28642e+07 1.0412e+07 9.6738e+06 8.89788e+06 8.05153e+06 7.77207e+06 8.58949e+06 2.38267e+07 7.4017e+06 6.84503e+06 6.52387e+06 6.43983e+06 6.2995e+06 6.26694e+06 6.0647e+06 5.95207e+06 1.46471e+07 1.31838e+07 1.20521e+07 6.85427e+06 6.2588e+06 8.35962e+06 6.13083e+06 5.6626e+06
threshold=19.500000000000004 2.5000000000000004 5.5000000000000009 1093.5000000000002 11.500000000000002 12.500000000000002 35.500000000000007 13.500000000000002 43.500000000000007 27.500000000000004 7.5000000000000009 1387.5000000000002 1590.5000000000002 1569.5000000000002 33.500000000000007 14.500000000000002 115.50000000000001 1.5000000000000002 1406.5000000000002 13.500000000000002 30.500000000000004 73.500000000000014 68.500000000000014 84.500000000000014 31.500000000000004 3.5000000000000004 56.500000000000007 53.500000000000007 1.5000000000000002 106.50000000000001
decision_type=2 2 2 2 2 2 2 2 2 2 2 2 2 2 2 2 2 2 2 2 2 2 2 2 2 2 2 2 2 2
left_child=1 4 3 6 5 -1 9 18 19 10 -2 16 13 -13 -11 20 21 -9 29 -4 -5 22 24 -23 -7 -25 27 28 -26 -3
right_child=2 7 8 15 -6 11 -8 17 -10 14 -12 12 -14 -15 -16 -17 -18 -19 -20 -21 -22 23 -24 25 26 -27 -28 -29 -30 -31
leaf_value=19.515251904726028 6.0968151921798022 -14.017430857147998 35.319558332417465 23.318588875279286 -18.558986219803316 -44.730786508248435 -37.920671545249824 -51.107323532104495 49.375180631247069 34.232865025221933 -20.311453841517611 -23.29310885574041 -43.737008454288755 89.332863171895355 7.4291717493534097 8.866601350572374 -60.974782083419065 6.462982680036788 8.6524707702653743 12.458592824582702 50.509809001954665 50.03919910249256 -67.539788233307362 -1.3386876088922675 -55.69269911724588 -41.355853184517187 -30.668449156551528 59.920528764724736 7.3153033865259047 -48.798158594278192
leaf_weight=40 390 469 1073 264 565 569 69 20 494 163 164 178 140 21 280 198 155 682 112 135 119 21 193 55 23 193 145 20 47 52
leaf_count=40 390 469 1073 264 565 569 69 20 494 163 164 178 140 21 280 198 155 682 112 135 119 21 193 55 23 193 145 20 47 52
internal_value=0 -22.1578 24.4801 10.9366 -32.654 -37.0783 3.83703 -3.56329 37.5859 6.72699 -1.7208 -38.3645 -24.7592 -11.408 17.2915 23.9628 -41.6103 4.8228 -12.8635 32.7647 31.767 -39.2394 -42.801 -26.039 -36.8625 -32.4811 -17.8112 2.90331 -13.3873 -17.4888
internal_weight=0 3700 3349 1647 2365 1800 1066 1335 1702 997 554 1760 339 199 443 581 1421 702 633 1208 383 1266 997 269 804 248 235 90 70 521
internal_count=7049 3700 3349 1647 2365 1800 1066 1335 1702 997 554 1760 339 199 443 581 1421 702 633 1208 383 1266 997 269 804 248 235 90 70 521
is_linear=0
shrinkage=0.1


Tree=19
num_leaves=31
num_cat=0
split_feature=2 0 0 6 2 4 5 0 0 1 1 4 2 6 2 6 5 6 6 2 6 6 6 1 6 6 5 6 6 6
split_gain=3.09707e+08 5.84932e+07 4.81495e+07 1.23641e+07 1.19461e+07 1.0613e+07 1.0396e+07 9.14291e+06 9.02574e+06 8.28337e+06 9.17688e+06 1.06467e+07 7.59815e+06 7.02774e+06 9.27776e+06 6.36617e+06 6.07376e+06 5.84716e+06 7.63759e+06 5.4231e+06 5.3985e+06 5.46305e+06 6.50608e+06 5.82355e+06 5.26548e+06 5.133e+06 6.41877e+06 5.93887e+06 1.1752e+07 4.78526e+06
threshold=19.500000000000004 2.5000000000000004 5.5000000000000009 1078.5000000000002 11.500000000000002 12.500000000000002 35.500000000000007 4.5000000000000009 8.5000000000000018 1.0000000180025095e-35 6.5000000000000009 58.500000000000007 37.500000000000007 1033.5000000000002 9.5000000000000018 1295.5000000000002 12.500000000000002 150.50000000000003 97.500000000000014 30.500000000000004 863.50000000000011 150.50000000000003 123.50000000000001 1.0000000180025095e-35 123.50000000000001 1689.5000000000002 8.5000000000000018 1569.5000000000002 1624.5000000000002 1417.5000000000002
decision_type=2 2 2 2 2 2 2 2 2 2 2 2 2 2 2 2 2 2 2 2 2 2 2 2 2 2 2 2 2 2
left_child=1 4 3 6 5 -1 9 13 20 -2 -11 -12 -13 17 -15 -7 19 18 -3 -5 21 22 -4 -23 -6 26 27 -17 -29 -21
right_child=2 7 8 16 24 15 -8 -9 -10 10 11 12 -14 14 -16 25 -18 -19 -20 29 -22 23 -24 -25 -26 -27 -28 28 -30 -31
leaf_value=17.563726949691773 -52.019152601559966 -14.32918613465106 31.553391612289303 21.31632279184057 -49.519436069064675 -37.968843840244674 -34.128604037519814 9.8882705860719913 45.086288320875738 15.693969022847236 9.9976757792683397 -37.886107599944403 6.3216622174796413 -26.506421362932993 11.198635257181325 -17.886331229026503 8.5123629339072746 -19.640626983535753 43.753639433119034 68.821476634632461 36.787315819813657 -34.245418624877935 90.827181868119681 20.741390861110361 -13.863211225041978 -55.990409342447919 -30.65945557901415 78.593590823086828 -19.866728676689998 27.474577061230679
leaf_weight=40 24 61 117 251 45 1326 69 381 502 564 231 114 59 85 281 104 223 491 36 55 520 20 22 521 520 45 236 22 27 57
leaf_count=40 24 61 117 251 45 1326 69 381 502 564 231 114 59 85 281 104 223 491 36 55 520 20 22 521 520 45 236 22 27 57
internal_value=0 -19.942 22.0321 9.84297 -29.3886 -33.3705 3.40385 -3.20696 33.8273 6.01448 7.45333 -4.05093 -22.8095 -8.43682 2.442 -34.5281 21.5015 -15.2083 7.22733 29.4811 29.1173 23.2519 40.9349 18.7086 -16.7031 -24.0155 -20.3166 -4.36288 24.3399 47.7789
internal_weight=0 3700 3349 1647 2365 1800 1061 1335 1702 992 968 404 173 954 366 1760 586 588 97 363 1200 680 139 541 565 434 389 153 49 112
internal_count=7049 3700 3349 1647 2365 1800 1061 1335 1702 992 968 404 173 954 366 1760 586 588 97 363 1200 680 139 541 565 434 389 153 49 112
is_linear=0
shrinkage=0.1


Tree=20
num_leaves=31
num_cat=0
split_feature=0 2 2 4 1 1 2 2 0 4 4 1 6 6 2 4 2 1 1 6 4 5 1 2 1 5 2 5 6 6
split_gain=2.52475e+08 4.45117e+07 3.81186e+07 1.54371e+07 1.23752e+07 1.22024e+07 1.12983e+07 9.71552e+06 9.35153e+06 8.39826e+06 8.22585e+06 7.13441e+06 7.11191e+06 6.49569e+06 6.39311e+06 5.90696e+06 5.86569e+06 1.06627e+07 6.86463e+06 5.75527e+06 5.40164e+06 7.22905e+06 5.58886e+06 4.78465e+06 6.54716e+06 4.67835e+06 5.39284e+06 4.47916e+06 4.41103e+06 6.83458e+06
threshold=3.5000000000000004 11.500000000000002 27.500000000000004 12.500000000000002 1.0000000180025095e-35 4.5000000000000009 23.500000000000004 16.500000000000004 6.5000000000000009 9.5000000000000018 25.500000000000004 1.5000000000000002 92.500000000000014 1048.5000000000002 1.0000000180025095e-35 61.500000000000007 43.500000000000007 10.500000000000002 20.500000000000004 534.50000000000011 16.500000000000004 22.500000000000004 3.5000000000000004 53.500000000000007 14.500000000000002 11.500000000000002 37.500000000000007 37.500000000000007 1678.5000000000002 1048.5000000000002
decision_type=2 2 2 2 2 2 2 2 2 2 2 2 2 2 2 2 2 2 2 2 2 2 2 2 2 2 2 2 2 2
left_child=1 3 4 9 10 7 12 -6 23 -1 13 14 -3 -2 -5 -12 17 -8 -19 -20 -14 22 -22 24 -4 26 -26 -23 29 -9
right_child=2 6 8 11 5 -7 16 28 -10 -11 15 -13 20 -15 -16 -17 -18 18 19 -21 21 27 -24 -25 25 -27 -28 -29 -30 -31
leaf_value=-8.5360085761293458 -77.973896430520455 -41.27900055898747 24.010818612974376 -50.99046863462867 3.5007410383224489 -3.9257204797797076 16.974356563042623 17.562830764563511 35.945633898561958 61.444940581145119 37.235647356951681 -31.91526901700059 4.1567284656973449 -6.1522926139831542 -8.1827113569292251 -21.928711378574373 45.512338853493716 -38.739171642146701 -33.118606549217589 33.464675939784335 2.0842750432491304 -49.388760410655635 -15.657620799253728 40.892879682296034 -12.94249133268992 -22.440063173987649 30.57663880484445 -13.4348075102246 -14.155905539413979 39.154610631021406
leaf_weight=47 34 71 538 41 360 401 245 387 1011 27 27 1715 255 20 234 45 39 73 21 34 300 77 435 111 48 55 70 63 29 236
leaf_count=47 34 71 538 41 360 401 245 387 1011 27 27 1715 255 20 234 45 39 73 21 34 300 77 435 111 48 55 70 63 29 236
internal_value=0 -18.1235 19.7628 -27.8499 8.15936 10.8371 -5.67756 16.6868 29.5051 16.9976 -21.8697 -29.5176 -10.5795 -51.3733 -14.565 0.257923 8.61177 4.75353 -18.6379 8.04197 -8.65057 -12.383 -8.41603 21.5838 18.5693 1.64695 12.8739 -33.2095 23.9675 25.7421
internal_weight=0 3677 3372 2064 1539 1413 1613 1012 1833 74 126 1990 1201 54 275 72 412 373 128 55 1130 875 735 822 711 173 118 140 652 623
internal_count=7049 3677 3372 2064 1539 1413 1613 1012 1833 74 126 1990 1201 54 275 72 412 373 128 55 1130 875 735 822 711 173 118 140 652 623
is_linear=0
shrinkage=0.1


Tree=21
num_leaves=31
num_cat=0
split_feature=0 2 2 4 2 4 4 4 2 4 4 4 1 1 4 1 5 4 4 1 4 1 4 4 2 4 4 4 4 6
split_gain=2.07387e+08 5.64911e+07 1.57563e+07 1.13883e+07 1.10671e+07 9.03054e+06 9.5234e+06 2.01336e+07 1.95532e+07 1.86993e+07 1.28034e+07 8.96638e+06 8.7592e+06 8.2989e+06 8.61841e+06 8.14143e+06 7.38793e+06 6.93907e+06 6.65143e+06 6.6391e+06 8.79847e+06 6.30053e+06 5.67764e+06 5.58101e+06 5.53295e+06 6.04502e+06 6.51156e+06 6.01104e+06 8.23051e+06 5.1959e+06
threshold=4.5000000000000009 12.500000000000002 27.500000000000004 12.500000000000002 23.500000000000004 115.50000000000001 73.500000000000014 68.500000000000014 3.5000000000000004 28.500000000000004 56.500000000000007 84.500000000000014 6.5000000000000009 5.5000000000000009 70.500000000000014 2.5000000000000004 3.5000000000000004 9.5000000000000018 53.500000000000007 1.0000000180025095e-35 34.500000000000007 3.5000000000000004 116.50000000000001 95.500000000000014 56.500000000000007 2.5000000000000004 1.5000000000000002 54.500000000000007 84.500000000000014 1447.5000000000002
decision_type=2 2 2 2 2 2 2 2 2 2 2 2 2 2 2 2 2 2 2 2 2 2 2 2 2 2 2 2 2 2
left_child=1 3 12 17 21 6 7 9 -8 -5 18 15 19 14 -9 -10 23 -1 -11 20 -2 -3 -6 -13 25 26 -4 -27 29 -29
right_child=2 4 24 5 22 -7 8 13 11 10 -12 16 -14 -15 -16 -17 -18 -19 -20 -21 -22 -23 -24 -25 -26 27 -28 28 -30 -31
leaf_value=-10.889149441657128 -52.159299871325494 1.3993541030656724 43.060507965087893 -30.654770731172988 6.4540000313682446 -45.021915653532432 68.253538329025801 -55.962442878923923 -25.625160180954708 5.2098046558669644 -19.621330000394845 -16.028874955353913 -14.269052416306955 -111.8005882956765 -2.5995078192816843 54.506394124031068 -25.231953778228547 40.038582608757956 51.90667311839568 18.669372350323584 18.190818424224855 -12.35528439647557 41.666616136200581 50.24677405357361 41.917814018753141 34.396672351285268 -11.760435742598315 6.9496995987016952 38.27385555026175 39.999148061445787
leaf_weight=77 32 588 30 847 699 206 29 190 21 140 251 27 108 22 36 32 404 41 39 775 40 768 49 24 267 683 78 316 174 56
leaf_count=77 32 588 30 847 699 206 29 190 21 140 251 27 108 22 36 32 404 41 39 775 40 768 49 24 267 683 78 316 174 56
internal_value=0 -12.9491 22.7204 -23.4821 -1.00429 -25.058 -23.0635 -27.0963 -11.6111 -22.0327 -5.04935 -16.1703 12.551 -53.1696 -47.4622 22.7562 -20.7045 6.80608 15.384 15.9708 -13.0759 -6.39088 8.76071 15.1597 28.7751 26.1504 3.4676 28.1437 20.3218 11.9249
internal_weight=0 4490 2559 2386 2104 2268 2062 1525 537 1277 430 508 955 248 226 53 455 118 179 847 72 1356 748 51 1604 1337 108 1229 546 372
internal_count=7049 4490 2559 2386 2104 2268 2062 1525 537 1277 430 508 955 248 226 53 455 118 179 847 72 1356 748 51 1604 1337 108 1229 546 372
is_linear=0
shrinkage=0.1


Tree=22
num_leaves=31
num_cat=0
split_feature=0 2 2 0 6 0 1 6 4 4 4 4 4 4 4 6 6 6 4 6 4 4 4 4 5 4 4 4 6 2
split_gain=1.68729e+08 4.65559e+07 1.31239e+07 1.2239e+07 9.25339e+06 7.41524e+06 6.52085e+06 6.15386e+06 5.98585e+06 5.43062e+06 6.3906e+06 1.66569e+07 1.68416e+07 1.2361e+07 1.43381e+07 5.37e+06 5.31189e+06 5.24505e+06 5.18056e+06 5.88077e+06 4.99555e+06 4.84066e+06 4.82268e+06 4.71887e+06 4.51399e+06 6.46189e+06 4.49875e+06 4.49547e+06 4.3553e+06 4.35006e+06
threshold=2.5000000000000004 27.500000000000004 11.500000000000002 5.5000000000000009 1229.5000000000002 7.5000000000000009 8.5000000000000018 1643.5000000000002 12.500000000000002 1.0000000180025095e-35 16.500000000000004 28.500000000000004 56.500000000000007 62.500000000000007 77.500000000000014 1155.5000000000002 777.50000000000011 123.50000000000001 116.50000000000001 1295.5000000000002 25.500000000000004 83.500000000000014 118.50000000000001 18.500000000000004 7.5000000000000009 73.500000000000014 18.500000000000004 14.500000000000002 1019.5000000000001 17.500000000000004
decision_type=2 2 2 2 2 2 2 2 2 2 2 2 2 2 2 2 2 2 2 2 2 2 2 2 2 2 2 2 2 2
left_child=2 3 8 4 9 15 -5 20 -1 -2 -11 23 -13 28 16 -3 -15 -4 19 -10 26 -19 -20 -12 25 -21 -6 -17 -14 -25
right_child=1 5 17 6 7 -7 -8 -9 18 10 11 12 13 14 -16 27 -18 21 22 24 -22 -23 -24 29 -26 -27 -28 -29 -30 -31
leaf_value=13.820337705612184 -55.042028669877482 14.630067492359323 -35.942483536626256 18.218890976446442 10.31498593970349 31.849618974922404 -38.621314312162859 -10.386677094810031 -27.447515422370699 9.4491091816656052 -7.2938813282893253 19.151626146717589 -49.211375759085833 48.219964796597843 -13.634113129395708 5.6628650011335111 -3.7654768055882948 -3.7077774955982274 -63.285380721092224 -11.727948913743012 23.653072448659827 -21.854458752337923 -10.72120981613795 -32.246426039934157 -21.604910133449177 36.420849215017789 -31.131215953826906 33.578223506488449 1.9947459411621093 -70.056984738605777
leaf_weight=40 22 864 71 519 114 707 21 117 1260 248 52 258 98 61 325 70 29 674 64 113 270 188 24 118 262 37 34 328 20 41
leaf_count=40 22 864 71 519 114 707 21 117 1260 248 52 258 98 61 325 70 29 674 64 113 270 188 24 118 262 37 34 328 20 41
internal_value=0 12.3115 -19.4425 2.79859 -1.14902 23.6506 16.0084 9.88511 -24.4316 -5.78995 -4.92311 -8.4803 -1.8212 -11.9731 -3.85269 19.0574 31.4691 -9.81736 -25.3009 -24.0562 15.5593 -7.66552 -48.9497 -33.4441 -13.6849 0.148755 0.793561 28.6685 -40.5324 -41.9963
internal_weight=0 4316 2733 2347 1807 1969 540 535 1800 1272 1250 1002 791 533 415 1262 90 933 1760 1672 418 862 88 211 412 150 148 398 118 159
internal_count=7049 4316 2733 2347 1807 1969 540 535 1800 1272 1250 1002 791 533 415 1262 90 933 1760 1672 418 862 88 211 412 150 148 398 118 159
is_linear=0
shrinkage=0.1


Tree=23
num_leaves=31
num_cat=0
split_feature=0 2 2 1 0 4 6 6 1 5 4 4 4 5 4 4 1 5 4 2 6 6 6 1 2 4 6 6 4 5
split_gain=1.38171e+08 3.7845e+07 1.09717e+07 9.72619e+06 9.52543e+06 6.7612e+06 6.26449e+06 7.16256e+06 6.21391e+06 6.01003e+06 5.7948e+06 5.44411e+06 1.30944e+07 1.0308e+07 5.56538e+06 1.01996e+07 9.12891e+06 5.50283e+06 4.72622e+06 4.70592e+06 4.86702e+06 4.61511e+06 5.49503e+06 4.56392e+06 6.81548e+06 4.53771e+06 4.44539e+06 4.16642e+06 4.45636e+06 3.8506e+06
threshold=4.5000000000000009 14.500000000000002 35.500000000000007 6.5000000000000009 1.5000000000000002 111.50000000000001 857.50000000000011 803.50000000000011 1.0000000180025095e-35 21.500000000000004 24.500000000000004 28.500000000000004 56.500000000000007 10.500000000000002 90.500000000000014 104.50000000000001 1.5000000000000002 1.5000000000000002 22.500000000000004 28.500000000000004 534.50000000000011 1295.5000000000002 1602.5000000000002 2.5000000000000004 10.500000000000002 11.500000000000002 1219.5000000000002 1265.5000000000002 120.50000000000001 8.5000000000000018
decision_type=2 2 2 2 2 2 2 2 2 2 2 2 2 2 2 2 2 2 2 2 2 2 2 2 2 2 2 2 2 2
left_child=1 4 3 8 -1 11 7 9 10 19 -2 13 17 23 -14 16 -16 -13 -11 -3 -21 27 -23 -6 -25 -15 -4 28 -10 -24
right_child=2 6 26 -5 5 -7 -8 -9 21 18 -12 12 14 25 15 -17 -18 -19 -20 20 -22 22 29 24 -26 -27 -28 -29 -30 -31
leaf_value=-23.986811403289991 -41.227999866709993 -3.9880925747847642 22.786217357450226 -4.7624103726892493 -18.80543700788381 -39.93366516217953 6.7182040604678068 -45.957298416626166 14.93813721938972 -3.5529814313439765 11.288196855024857 -19.310452221285914 -17.725747291945122 37.364486546670236 -0.82784652262926106 -17.461471146206524 76.636240821049142 27.107330470578429 -40.569299582072667 5.7680028828045797 46.010810299408746 38.818117452735336 26.748761986849601 -60.392721522726667 -14.380811126277132 -5.4808135220261871 38.126850903556054 -23.721627736974646 58.658003784219424 -13.434747877353576
leaf_weight=1350 34 562 803 254 212 82 880 41 816 68 55 31 444 31 32 86 29 145 70 131 39 201 57 82 53 122 247 27 24 41
leaf_count=1350 34 562 803 254 212 82 880 41 816 68 55 31 444 31 32 86 29 145 70 131 39 201 57 82 53 122 247 27 24 41
internal_value=0 -10.5695 18.5452 13.0832 -18.0483 -12.1053 0.700747 -5.11194 16.695 -3.18705 -8.77417 -10.3043 -5.01176 -18.423 -12.1421 4.72295 35.9993 18.9315 -22.3294 0.421751 15.0002 18.639 29.3522 -27.9572 -42.3288 3.20026 26.3949 14.9444 16.1873 9.93729
internal_weight=0 4490 2559 1509 2699 1349 1791 911 1255 870 89 1267 767 500 591 147 61 176 138 732 170 1166 299 347 135 153 1050 867 840 98
internal_count=7049 4490 2559 1509 2699 1349 1791 911 1255 870 89 1267 767 500 591 147 61 176 138 732 170 1166 299 347 135 153 1050 867 840 98
is_linear=0
shrinkage=0.1


Tree=24
num_leaves=31
num_cat=0
split_feature=0 2 4 2 4 4 4 4 4 4 0 6 6 1 6 6 4 4 5 6 6 6 6 6 6 4 4 4 4 4
split_gain=1.13002e+08 3.14037e+07 9.84844e+06 8.19896e+06 8.0241e+06 8.3067e+06 2.20042e+07 1.75412e+07 1.56489e+07 2.01498e+07 7.09396e+06 6.96021e+06 5.39332e+06 5.16002e+06 4.80208e+06 5.82696e+06 4.79114e+06 4.78968e+06 4.66395e+06 4.59497e+06 4.41883e+06 4.92094e+06 4.81455e+06 7.83106e+06 5.38062e+06 7.08174e+06 4.34081e+06 6.92166e+06 4.46885e+06 4.18894e+06
threshold=2.5000000000000004 25.500000000000004 117.50000000000001 7.5000000000000009 1.0000000180025095e-35 16.500000000000004 28.500000000000004 56.500000000000007 62.500000000000007 77.500000000000014 6.5000000000000009 513.50000000000011 457.50000000000006 8.5000000000000018 990.50000000000011 1557.5000000000002 12.500000000000002 80.500000000000014 28.500000000000004 215.50000000000003 1433.5000000000002 40.500000000000007 1590.5000000000002 1562.5000000000002 1518.5000000000002 68.500000000000014 86.500000000000014 95.500000000000014 106.50000000000001 115.50000000000001
decision_type=2 2 2 2 2 2 2 2 2 2 2 2 2 2 2 2 2 2 2 2 2 2 2 2 2 2 2 2 2 2
left_child=3 2 4 16 -2 -6 -7 18 13 -10 11 12 19 -9 -5 -16 -1 -11 -8 -3 21 -18 23 24 25 -22 -19 -28 -29 -23
right_child=1 10 -4 14 5 6 7 8 9 17 -12 -13 -14 -15 15 -17 20 26 -20 -21 22 29 -24 -25 -26 -27 27 28 -30 -31
leaf_value=25.355968293689546 -45.074080898887239 -7.1161827721051729 58.163869736989341 -15.675788292034859 13.087026167793192 -26.620910370629908 22.185547423791544 -37.699698864882158 28.452728403676858 -39.915936452784443 24.176746152680344 18.499539565798933 -31.336271795907688 9.6266204374807867 1.338934646879399 -21.20868225662332 20.093018855219302 6.3783105212965134 -21.468449731973504 16.056912907201852 40.645646712359259 -24.140501512459348 -26.536966340085293 60.830733947753906 -37.884264711431555 -28.684080930856556 -62.580994598953822 6.8986445243159942 -23.090915205611765 -43.560327297449113
leaf_weight=21 38 149 30 892 462 298 417 157 202 47 1077 754 43 27 466 152 23 162 26 201 34 840 94 20 37 26 27 96 103 128
leaf_count=21 38 149 30 892 462 298 417 157 202 47 1077 754 43 27 466 152 23 162 26 201 34 840 94 20 37 26 27 96 103 128
internal_value=0 10.0753 1.28033 -15.9111 0.452729 1.30748 -2.17661 3.58637 -5.06702 2.35307 18.3483 12.8756 2.08567 -30.7551 -10.9818 -4.20676 -21.9972 -9.76677 19.6235 6.1918 -22.8245 -25.6222 -9.68442 3.85524 -7.89229 10.6028 -6.11468 -15.0698 -8.62359 -26.7084
internal_weight=0 4316 2092 2733 2062 2024 1562 1264 821 637 2224 1147 393 184 1510 618 1223 435 443 350 1202 991 211 117 97 60 388 226 199 968
internal_count=7049 4316 2092 2733 2062 2024 1562 1264 821 637 2224 1147 393 184 1510 618 1223 435 443 350 1202 991 211 117 97 60 388 226 199 968
is_linear=0
shrinkage=0.1


Tree=25
num_leaves=31
num_cat=0
split_feature=0 2 6 6 4 4 2 4 4 4 4 2 4 2 4 2 0 1 2 2 4 1 2 6 1 2 1 4 1 4
split_gain=9.1532e+07 2.58642e+07 7.4953e+06 7.39141e+06 7.26757e+06 2.67798e+07 1.68866e+07 1.18133e+07 9.85961e+06 9.41764e+06 5.68106e+06 5.59318e+06 5.40975e+06 9.9015e+06 1.08063e+07 6.31542e+06 5.78028e+06 5.38834e+06 7.85424e+06 5.15096e+06 4.85894e+06 4.8273e+06 1.14517e+07 4.79038e+06 4.72971e+06 5.51928e+06 4.29622e+06 4.24001e+06 4.85153e+06 1.14014e+07
threshold=2.5000000000000004 27.500000000000004 1295.5000000000002 1643.5000000000002 68.500000000000014 69.500000000000014 2.5000000000000004 28.500000000000004 12.500000000000002 72.500000000000014 61.500000000000007 56.500000000000007 104.50000000000001 6.5000000000000009 73.500000000000014 7.5000000000000009 1.5000000000000002 1.0000000180025095e-35 7.5000000000000009 13.500000000000002 117.50000000000001 13.500000000000002 43.500000000000007 1661.5000000000002 7.5000000000000009 8.5000000000000018 4.5000000000000009 79.500000000000014 1.0000000180025095e-35 34.500000000000007
decision_type=2 2 2 2 2 2 2 2 2 2 2 2 2 2 2 2 2 2 2 2 2 2 2 2 2 2 2 2 2 2
left_child=4 2 19 24 7 6 -6 8 -1 -7 17 21 13 14 -11 -15 -16 -9 -19 -2 27 -3 -23 -5 25 -4 -12 28 29 -21
right_child=1 11 3 23 5 9 -8 10 -10 12 26 -13 -14 15 16 -17 -18 18 -20 20 -22 22 -24 -25 -26 -27 -28 -29 -30 -31
leaf_value=1.4016241205950914 -10.108795174488352 18.393363240655962 -20.305887071017565 -49.088335214749634 -40.930581888120777 53.005557541620171 -120.07969403266907 -38.456920115152997 -21.855021344767081 -28.13082079206194 14.532929153101785 30.582361312862815 -24.808282490810718 -37.073341236409455 86.450265370244566 -8.3073341526465718 21.540709095842701 51.771188709212517 5.5171459015278401 -64.064056558320019 45.672649002075197 -8.6948687642429014 24.833945114177894 0.25744048006394332 -12.850635985352776 25.001640810876037 -21.873926129139647 -11.657213564899481 5.6441905018550083 18.448373380829306
leaf_weight=236 484 1274 29 23 171 21 32 24 801 28 42 281 332 97 23 358 34 41 351 33 25 233 181 136 44 369 142 214 956 34
leaf_count=236 484 1274 29 23 171 21 32 24 801 28 42 281 332 97 23 358 34 41 351 33 25 233 181 136 44 369 142 214 956 34
internal_value=0 9.0678 1.97732 11.6095 -14.32 -20.6222 -53.4073 -10.1006 -16.5623 -13.1694 1.06743 17.5195 -14.7631 -8.58715 22.7421 -14.4399 47.7323 7.53887 10.3549 -1.33821 2.02548 15.3449 5.96386 -6.88063 18.2609 21.7003 -13.5637 1.14336 3.82109 -22.1921
internal_weight=0 4316 2347 601 2733 1096 203 1637 1037 893 600 1969 872 540 85 455 57 416 392 1746 1262 1688 414 159 442 398 184 1237 1023 67
internal_count=7049 4316 2347 601 2733 1096 203 1637 1037 893 600 1969 872 540 85 455 57 416 392 1746 1262 1688 414 159 442 398 184 1237 1023 67
is_linear=0
shrinkage=0.1


Tree=26
num_leaves=31
num_cat=0
split_feature=0 2 6 4 0 6 6 4 4 5 6 1 1 2 5 6 4 4 1 4 1 0 1 4 4 4 4 4 4 2
split_gain=7.63437e+07 1.97058e+07 9.30121e+06 7.54619e+06 7.13442e+06 5.40257e+06 5.19786e+06 5.29962e+06 1.75678e+07 9.49556e+06 5.04261e+06 6.42148e+06 5.01653e+06 4.57437e+06 5.21802e+06 4.14662e+06 4.08951e+06 7.26151e+06 7.16454e+06 5.92707e+06 5.72271e+06 4.00571e+06 3.73831e+06 4.24112e+06 4.6369e+06 3.73258e+06 6.79078e+06 8.23205e+06 3.57266e+06 3.45771e+06
threshold=4.5000000000000009 9.5000000000000018 1029.5000000000002 12.500000000000002 8.5000000000000018 118.50000000000001 1295.5000000000002 57.500000000000007 62.500000000000007 4.5000000000000009 1528.5000000000002 1.5000000000000002 1.0000000180025095e-35 21.500000000000004 43.500000000000007 156.50000000000003 24.500000000000004 36.500000000000007 10.500000000000002 18.500000000000004 3.5000000000000004 1.5000000000000002 4.5000000000000009 85.500000000000014 83.500000000000014 115.50000000000001 90.500000000000014 104.50000000000001 9.5000000000000018 38.500000000000007
decision_type=2 2 2 2 2 2 2 2 2 2 2 2 2 2 2 2 2 2 2 2 2 2 2 2 2 2 2 2 2 2
left_child=1 3 13 28 6 21 7 12 9 -9 16 -12 -2 -3 15 -15 19 18 -18 -4 -21 -5 -10 24 -24 26 -7 -28 -1 -19
right_child=4 2 10 5 -6 25 -8 8 22 -11 11 -13 -14 14 -16 -17 17 29 -20 20 -22 -23 23 -25 -26 -27 27 -29 -30 -31
leaf_value=0.6021342653216738 -23.23297343898464 -11.131436673132029 6.4028128950034873 -10.137865711891488 24.460221688932265 -19.150447908190298 20.055136625561303 -11.149950113604147 14.912017563524282 -90.069331054687495 25.571351242932408 -11.760261678989504 14.313031992914853 -19.353065752983095 -42.253226338114061 5.5398237804951442 80.182487537014879 7.9202344556915207 6.5199943148571506 6.3964227925176207 -59.903666057586669 29.558879519731576 -4.0765037892795197 18.869628055330733 -52.96843077757142 -32.680718752490669 65.911784896850591 -6.9516133571016612 54.164750251770023 46.175900222778324
leaf_weight=33 37 1104 204 73 503 1272 499 31 271 30 55 284 931 78 28 471 31 430 23 23 30 39 164 71 22 178 20 69 20 25
leaf_count=33 37 1104 204 73 503 1272 499 31 271 30 55 284 931 78 28 471 31 430 23 23 30 39 164 71 22 178 20 69 20 25
internal_value=0 -7.8566 -2.67555 -16.3275 13.7851 -17.5198 11.1735 8.327 0.847742 -49.9628 4.45105 -5.70351 12.8779 -7.36019 -0.144493 2.00313 8.94504 14.137 48.8077 -1.33781 -31.1319 3.68511 6.71789 -1.9226 -9.85942 -19.063 -17.282 9.42218 20.8144 10.0222
internal_weight=0 4490 2786 1704 2559 1651 2056 1557 589 61 1105 339 968 1681 577 549 766 509 54 257 53 112 528 257 186 1539 1361 89 53 455
internal_count=7049 4490 2786 1704 2559 1651 2056 1557 589 61 1105 339 968 1681 577 549 766 509 54 257 53 112 528 257 186 1539 1361 89 53 455
is_linear=0
shrinkage=0.1


Tree=27
num_leaves=31
num_cat=0
split_feature=0 2 0 4 4 0 2 1 6 1 6 4 4 4 5 1 2 6 1 6 6 1 5 4 6 6 5 1 1 0
split_gain=6.18384e+07 1.63782e+07 6.01017e+06 5.04753e+06 9.98023e+06 4.64887e+06 4.01585e+06 5.95775e+06 5.25902e+06 4.77807e+06 3.90483e+06 3.72604e+06 4.05624e+06 8.49586e+06 5.53133e+06 4.18364e+06 7.22365e+06 4.00851e+06 3.68924e+06 6.16138e+06 4.13337e+06 6.58825e+06 4.90242e+06 3.66778e+06 3.50292e+06 3.25025e+06 3.67202e+06 3.56958e+06 3.61174e+06 3.05118e+06
threshold=4.5000000000000009 14.500000000000002 6.5000000000000009 1.0000000180025095e-35 4.5000000000000009 1.5000000000000002 46.500000000000007 7.5000000000000009 1326.5000000000002 1.0000000180025095e-35 1362.5000000000002 111.50000000000001 28.500000000000004 42.500000000000007 10.500000000000002 2.5000000000000004 10.500000000000002 734.50000000000011 17.500000000000004 1562.5000000000002 836.50000000000011 15.500000000000002 14.500000000000002 73.500000000000014 1274.5000000000002 1295.5000000000002 31.500000000000004 1.5000000000000002 3.5000000000000004 10.500000000000002
decision_type=2 2 2 2 2 2 2 2 2 2 2 2 2 2 2 2 2 2 2 2 2 2 2 2 2 2 2 2 2 2
left_child=1 3 25 -1 -5 -6 7 8 9 -3 -10 12 14 -14 15 -7 -17 -18 19 20 21 -9 -22 -12 -11 26 -2 -27 -29 -4
right_child=2 6 29 4 5 11 -8 18 10 24 23 -13 13 -15 -16 16 17 -19 -20 -21 22 -23 -24 -25 -26 27 -28 28 -30 -31
leaf_value=-62.041432876586924 5.9112532568337981 -34.640999719971106 15.508462802833689 57.050389407929927 -16.301115524093728 -11.952808276067179 21.427297377031906 -14.499251548896234 52.465109507242836 3.1987132744743212 5.8347975825932288 -28.578235279641504 37.763644981384282 -4.8704168742088765 2.1449293508010658 -54.001881221578095 29.312556037902837 -28.881058791588096 -1.6036852249819837 -62.219617730599865 15.529511528544957 -75.214013272240052 -28.821571337680027 37.753887995613944 -28.757762739393446 -6.6011693988527576 -26.214268318382473 37.048351730838895 12.536820452634027 30.870315621650384
leaf_weight=20 927 38 1130 21 1342 192 86 120 27 727 180 82 50 717 147 79 20 29 367 27 81 21 36 45 36 56 37 93 170 146
leaf_count=20 927 38 1130 21 1342 192 86 120 27 727 180 82 50 717 147 79 20 29 367 27 81 21 36 45 36 56 37 93 170 146
internal_value=0 -7.07094 12.4066 -11.9908 -11.6172 -12.1597 0.343243 -0.720234 3.93122 -0.0326753 16.5307 -7.93648 -6.56482 -2.09114 -13.9124 -21.2887 -35.2926 -5.12856 -8.23247 -16.7685 -12.012 -23.5419 1.88302 12.2186 1.69094 7.57357 4.67822 16.3232 21.2044 17.2662
internal_weight=0 4490 2559 2699 2679 2658 1791 1705 1053 801 252 1316 1234 767 467 320 128 49 652 285 258 141 117 225 763 1283 964 319 263 1276
internal_count=7049 4490 2559 2699 2679 2658 1791 1705 1053 801 252 1316 1234 767 467 320 128 49 652 285 258 141 117 225 763 1283 964 319 263 1276
is_linear=0
shrinkage=0.1


Tree=28
num_leaves=31
num_cat=0
split_feature=2 0 0 1 5 6 4 4 2 1 1 6 6 6 4 4 2 4 4 6 6 4 1 6 1 4 5 6 6 4
split_gain=5.12368e+07 1.08966e+07 7.90502e+06 6.16743e+06 5.75959e+06 5.39207e+06 4.66525e+06 6.1503e+06 4.37802e+06 4.37598e+06 4.27944e+06 4.11374e+06 7.40609e+06 5.03515e+06 5.30921e+06 1.17982e+07 6.52178e+06 5.81911e+06 4.65687e+06 4.50216e+06 4.43364e+06 4.28045e+06 3.91287e+06 3.80554e+06 4.68714e+06 4.54426e+06 9.63475e+06 4.54317e+06 3.71216e+06 3.64172e+06
threshold=21.500000000000004 2.5000000000000004 6.5000000000000009 1.0000000180025095e-35 16.500000000000004 513.50000000000011 116.50000000000001 117.50000000000001 46.500000000000007 7.5000000000000009 18.500000000000004 1295.5000000000002 1643.5000000000002 150.50000000000003 57.500000000000007 62.500000000000007 6.5000000000000009 77.500000000000014 43.500000000000007 791.50000000000011 97.500000000000014 28.500000000000004 2.5000000000000004 1236.5000000000002 16.500000000000004 89.500000000000014 6.5000000000000009 1684.5000000000002 691.50000000000011 114.50000000000001
decision_type=2 2 2 2 2 2 2 2 2 2 2 2 2 2 2 2 2 2 2 2 2 2 2 2 2 2 2 2 2 2
left_child=1 6 3 -2 5 9 23 -8 29 -5 -11 13 -13 20 16 19 -15 28 -18 -16 21 -3 -6 24 -1 27 -27 -25 -17 -7
right_child=2 11 -4 4 22 8 7 -9 -10 10 -12 12 -14 14 15 17 18 -19 -20 -21 -22 -23 -24 25 -26 26 -28 -29 -30 -31
leaf_value=-14.686533953765043 -30.355940482409103 -23.70892027034316 16.318926681195563 8.0675552136608477 19.684567604746139 9.8988084779094603 -51.314097286760813 -0.93568838070600457 31.927373954678373 -27.295418275635821 4.6453949083516628 16.041853944514251 -14.979578896210747 -52.452811730426291 -68.74809406280518 49.402420178166146 -2.4202421729108123 -12.376358163446412 20.783426239805404 -25.351580537534229 34.595987607664988 18.577375523249309 -9.1029851935630628 -4.1129432885316168 3.4974697316686312 72.949796269250953 -5.2548767557144167 -32.672944430382024 0.63600347879770647 40.875835531950003
leaf_weight=1552 46 43 1184 317 56 741 64 39 121 87 81 296 104 23 45 27 470 266 106 51 59 54 301 548 156 23 50 62 37 40
leaf_count=1552 46 43 1184 317 56 741 64 39 121 87 81 296 104 23 45 27 470 266 106 51 59 54 301 548 156 23 50 62 37 40
internal_value=0 -7.28339 9.97977 5.78671 6.74002 9.65555 -11.4006 -32.2388 14.2276 1.15256 -11.8954 -0.78863 7.97628 -3.75727 -6.30458 -14.8388 -0.235201 -5.86277 1.84988 -45.6937 12.9799 -0.168096 -4.58729 -10.5029 -13.0257 -4.19402 19.385 -7.01576 21.2093 11.4853
internal_weight=0 4075 2974 1790 1744 1387 2494 103 902 485 168 1581 400 1181 1025 426 599 330 576 96 156 97 357 2391 1708 683 73 610 64 781
internal_count=7049 4075 2974 1790 1744 1387 2494 103 902 485 168 1581 400 1181 1025 426 599 330 576 96 156 97 357 2391 1708 683 73 610 64 781
is_linear=0
shrinkage=0.1


Tree=29
num_leaves=31
num_cat=0
split_feature=2 0 4 4 6 4 4 2 4 4 4 2 5 4 4 4 5 6 5 4 2 5 5 6 2 4 4 6 6 6
split_gain=4.15262e+07 1.18892e+07 7.49598e+06 5.47706e+06 5.08551e+06 4.6632e+06 2.02673e+07 1.41242e+07 6.83182e+06 6.38039e+06 5.70669e+06 5.34e+06 4.61617e+06 4.61535e+06 5.08989e+06 4.29355e+06 4.21523e+06 4.63109e+06 4.07738e+06 3.7614e+06 3.69402e+06 4.06996e+06 3.49498e+06 3.44343e+06 4.25316e+06 9.74915e+06 4.63214e+06 3.36764e+06 4.81467e+06 3.74656e+06
threshold=24.500000000000004 2.5000000000000004 118.50000000000001 1.0000000180025095e-35 990.50000000000011 68.500000000000014 69.500000000000014 2.5000000000000004 28.500000000000004 13.500000000000002 83.500000000000014 14.500000000000002 55.500000000000007 86.500000000000014 95.500000000000014 100.50000000000001 4.5000000000000009 1548.5000000000002 16.500000000000004 102.50000000000001 50.500000000000007 1.5000000000000002 41.500000000000007 518.50000000000011 6.5000000000000009 43.500000000000007 42.500000000000007 1295.5000000000002 1643.5000000000002 222.50000000000003
decision_type=2 2 2 2 2 2 2 2 2 2 2 2 2 2 2 2 2 2 2 2 2 2 2 2 2 2 2 2 2 2
left_child=1 5 3 -3 22 8 7 -7 9 12 -8 -11 -1 27 -15 18 17 -12 20 -16 21 -6 -2 -10 25 -25 -26 29 -29 -5
right_child=4 2 -4 13 15 6 10 -9 23 11 16 -13 -14 14 19 -17 -18 -19 -20 -21 -22 -23 -24 24 26 -27 -28 28 -30 -31
leaf_value=3.9054821364827599 7.4871289473917715 -38.550425318125136 55.786723327636722 10.741806312871779 -14.85118298855695 -32.157449078559878 7.0020497365112604 -104.54388892650604 -8.4544925123612522 -15.958434602602052 -4.9176361756048346 -59.27775369008382 -20.634469377404393 -54.035993872748492 25.517485954021588 39.382980795526834 -17.034138624188099 46.57151832580567 -0.2898308083130296 -13.587758786295666 34.365198373361068 16.757748757946036 -32.658972029252489 -19.107544962565104 39.015525672652508 68.051718688372418 -0.69802087969547799 15.86212717577815 -8.8157635605335241 -3.1669980233376456
leaf_weight=318 1514 37 24 239 44 171 187 32 187 553 138 30 101 27 29 74 524 20 157 162 110 549 22 21 33 33 267 320 105 1021
leaf_count=318 1514 37 24 239 44 171 187 32 187 553 138 30 101 27 29 74 524 20 157 162 110 549 22 21 33 33 267 320 105 1021
internal_value=0 -5.63716 0.242539 -0.444606 10.4504 -10.0531 -15.1194 -43.5681 -6.5333 -11.4226 -8.47377 -18.1876 -2.00988 0.296285 -13.3953 16.2693 -12.7171 1.59998 14.2805 -7.65031 17.5345 14.4124 6.91212 2.52236 8.32087 34.1564 3.67047 2.06766 9.76524 -0.528741
internal_weight=0 4579 1964 1940 2470 2615 1072 203 1543 1002 869 583 419 1903 218 934 682 158 860 191 703 593 1536 541 354 54 300 1685 425 1260
internal_count=7049 4579 1964 1940 2470 2615 1072 203 1543 1002 869 583 419 1903 218 934 682 158 860 191 703 593 1536 541 354 54 300 1685 425 1260
is_linear=0
shrinkage=0.1


Tree=30
num_leaves=31
num_cat=0
split_feature=0 2 4 6 6 4 4 6 5 2 1 1 2 4 1 6 1 6 4 1 4 4 4 4 2 6 4 4 4 4
split_gain=3.486e+07 8.76711e+06 7.24802e+06 5.56117e+06 6.20524e+06 5.81423e+06 5.01568e+06 4.61424e+06 4.4879e+06 4.10582e+06 4.8171e+06 3.43826e+06 3.39062e+06 4.29794e+06 4.03262e+06 3.37293e+06 5.1978e+06 3.9341e+06 3.22935e+06 3.19346e+06 2.99598e+06 8.42675e+06 1.15054e+07 2.96387e+06 2.95886e+06 5.24831e+06 2.8538e+06 1.4636e+07 6.98692e+06 6.94477e+06
threshold=4.5000000000000009 9.5000000000000018 1.0000000180025095e-35 1078.5000000000002 1108.5000000000002 5.5000000000000009 12.500000000000002 48.500000000000007 22.500000000000004 43.500000000000007 13.500000000000002 7.5000000000000009 27.500000000000004 117.50000000000001 6.5000000000000009 1518.5000000000002 1.5000000000000002 1130.5000000000002 2.5000000000000004 24.500000000000004 115.50000000000001 90.500000000000014 104.50000000000001 9.5000000000000018 22.500000000000004 1484.5000000000002 88.500000000000014 73.500000000000014 68.500000000000014 34.500000000000007
decision_type=2 2 2 2 2 2 2 2 2 2 2 2 2 2 2 2 2 2 2 2 2 2 2 2 2 2 2 2 2 2
left_child=1 6 -3 5 -5 -4 23 -8 -7 10 12 -11 13 14 -2 17 -17 -6 -14 -13 21 26 -23 -1 25 -19 27 28 29 -9
right_child=9 2 3 4 15 8 7 20 -10 11 -12 19 18 -15 -16 16 -18 24 -20 -21 -22 22 -24 -25 -26 -27 -28 -29 -30 -31
leaf_value=0.91170936353278886 5.8676515147772186 -50.74071561177572 19.300725477118242 48.609945472594234 -31.419090829849246 -3.9315547633886769 25.086418466856987 -16.016417125836245 -18.48103263607025 6.3422622910186428 -8.6139389527114965 28.282500039805633 -8.2145203487689695 50.445571479797366 -15.484647129882468 24.011680344330536 -10.028361273056841 1.5685031545015029 14.958519279343292 7.0969558489691353 -24.553978688412528 80.981890869140628 -1.3863220727121508 49.697785215377813 19.873607925629486 44.26033803147655 -27.569675281190872 31.705579312370247 -29.884653452064239 3.4459616213513073
leaf_weight=33 830 30 95 31 25 1395 33 646 250 201 176 267 65 20 99 53 292 405 804 97 188 22 74 20 179 31 125 73 234 256
leaf_count=33 830 30 95 31 25 1395 33 646 250 201 176 267 65 20 99 53 292 405 804 97 188 22 74 20 179 31 125 73 234 256
internal_value=0 -5.30899 -1.85318 -1.32103 4.55754 -4.75357 -10.9591 -11.9312 -6.14272 9.31511 7.18292 16.84 8.7122 4.57964 3.59222 3.17112 -4.79902 7.46752 13.2252 22.6369 -12.6862 -11.126 17.4897 19.3215 9.04828 4.60393 -13.1853 -11.698 -14.4872 -10.4927
internal_weight=0 4490 2786 2756 1016 1740 1704 1651 1645 2559 1994 565 1818 949 929 985 345 640 869 364 1618 1430 96 53 615 436 1334 1209 1136 902
internal_count=7049 4490 2786 2756 1016 1740 1704 1651 1645 2559 1994 565 1818 949 929 985 345 640 869 364 1618 1430 96 53 615 436 1334 1209 1136 902
is_linear=0
shrinkage=0.1


Tree=31
num_leaves=31
num_cat=0
split_feature=0 2 4 6 4 4 4 1 4 4 2 4 4 4 4 4 1 6 6 5 4 4 0 4 4 1 5 5 4 4
split_gain=2.82366e+07 7.10136e+06 5.8709e+06 5.00578e+06 4.12429e+06 5.58512e+06 5.83722e+06 5.36124e+06 5.21979e+06 1.1769e+07 9.51021e+06 6.39875e+06 5.03391e+06 4.25164e+06 4.0627e+06 4.04807e+06 6.44424e+06 3.86975e+06 3.79022e+06 3.77405e+06 5.87813e+06 5.03353e+06 3.6629e+06 3.60392e+06 3.43299e+06 3.66938e+06 3.32888e+06 3.23005e+06 3.18911e+06 1.81056e+07
threshold=4.5000000000000009 9.5000000000000018 1.0000000180025095e-35 66.500000000000014 57.500000000000007 62.500000000000007 64.500000000000014 4.5000000000000009 28.500000000000004 18.500000000000004 17.500000000000004 17.500000000000004 33.500000000000007 16.500000000000004 12.500000000000002 117.50000000000001 22.500000000000004 1518.5000000000002 118.50000000000001 6.5000000000000009 68.500000000000014 76.500000000000014 8.5000000000000018 61.500000000000007 106.50000000000001 10.500000000000002 3.5000000000000004 13.500000000000002 57.500000000000007 62.500000000000007
decision_type=2 2 2 2 2 2 2 2 2 2 2 2 2 2 2 2 2 2 2 2 2 2 2 2 2 2 2 2 2 2
left_child=1 14 -3 -4 8 7 -7 -6 9 11 -11 13 27 -5 -1 16 19 23 -16 24 -21 -22 28 -9 -8 -26 -17 -10 -2 -30
right_child=22 2 3 4 5 6 15 17 12 10 -12 -13 -14 -15 18 26 -18 -19 -20 20 21 -23 -24 -25 25 -27 -28 -29 29 -31
leaf_value=17.389393839296304 9.6394235631948817 -45.666644376118981 -21.520415253474795 6.9638066568553825 -41.989319520526465 39.620059071165144 7.1846783444856825 11.887664764958458 46.835851837504997 -9.5161001971188721 -56.410838392582434 45.938832224739926 6.7454124302728804 -13.186799240112306 7.022979950558927 54.290103559494014 -54.164830310528103 -46.463337289719362 -12.030645354983868 42.506894419193273 -58.459133944304099 -10.218544965543202 16.032607222954276 -32.027984191894532 0.03857875400119358 -52.559840865362254 6.1532010321523636 -0.092875647544860843 -44.865236412851438 6.4585098779417054
leaf_weight=53 1261 30 116 479 72 33 339 74 55 170 58 36 564 134 112 20 26 21 1539 20 23 363 503 25 36 21 51 20 76 719
leaf_count=53 1261 30 116 479 72 33 339 74 55 170 58 36 564 134 112 20 26 21 1539 20 23 363 503 25 36 21 51 20 76 719
internal_value=0 -4.77809 -1.66787 -1.18892 -0.295571 -4.88585 -1.6864 -20.4165 3.10778 -1.90095 -21.4455 4.96522 9.98205 2.55894 -9.86323 -3.20265 -5.16763 -7.47285 -10.7381 -3.5792 -10.3541 -13.093 8.3836 0.797854 3.36676 -19.3398 19.7129 34.3215 6.51227 1.55209
internal_weight=0 4490 2786 2756 2640 1124 932 192 1516 877 228 649 639 613 1704 899 828 120 1651 802 406 386 2559 99 396 57 71 75 2056 795
internal_count=7049 4490 2786 2756 2640 1124 932 192 1516 877 228 649 639 613 1704 899 828 120 1651 802 406 386 2559 99 396 57 71 75 2056 795
is_linear=0
shrinkage=0.1


Tree=32
num_leaves=31
num_cat=0
split_feature=0 2 4 6 6 4 6 6 6 5 6 5 4 6 6 6 1 4 4 4 5 4 4 4 1 6 2 4 2 4
split_gain=2.28716e+07 5.7521e+06 4.75543e+06 4.38504e+06 5.0004e+06 4.41974e+06 3.60823e+06 3.58018e+06 4.49315e+06 3.31012e+06 3.2718e+06 3.11376e+06 3.09283e+06 2.95777e+06 3.31065e+06 5.10033e+06 4.66276e+06 7.22808e+06 3.8789e+06 1.15965e+07 7.13227e+06 2.93523e+06 2.87915e+06 3.25455e+06 2.70182e+06 4.38995e+06 3.33994e+06 3.08553e+06 2.64699e+06 2.47582e+06
threshold=4.5000000000000009 9.5000000000000018 1.0000000180025095e-35 1078.5000000000002 1108.5000000000002 5.5000000000000009 48.500000000000007 1295.5000000000002 1306.5000000000002 22.500000000000004 1265.5000000000002 8.5000000000000018 12.500000000000002 1224.5000000000002 150.50000000000003 131.50000000000003 1.0000000180025095e-35 34.500000000000007 57.500000000000007 62.500000000000007 5.5000000000000009 8.5000000000000018 86.500000000000014 83.500000000000014 3.5000000000000004 1693.5000000000002 31.500000000000004 9.5000000000000018 10.500000000000002 106.50000000000001
decision_type=2 2 2 2 2 2 2 2 2 2 2 2 2 2 2 2 2 2 2 2 2 2 2 2 2 2 2 2 2 2
left_child=1 6 -3 5 -5 -4 -1 10 -9 -7 13 21 -8 14 15 -2 17 -16 -18 20 -20 -10 23 -21 25 27 29 -6 -29 -26
right_child=7 2 3 4 24 9 12 8 11 -11 -12 -13 -14 -15 16 -17 18 -19 19 22 -22 -23 -24 -25 26 -27 -28 28 -30 -31
leaf_value=22.899620110648019 10.03640571612657 -41.099979127248133 16.854172414478505 43.695116281509399 -14.955432203080921 -3.4302393482321052 14.703493989682665 58.744361322576346 -4.0067543852562997 -15.925575399494171 -22.447072052374121 2.7323416111492875 -10.307553324387012 26.743371226182628 -67.672944276229188 49.547035458213408 8.6411542318503898 2.0666673751104447 -11.1574988188567 1.3287731137889172 -85.282319755554212 21.875974373025912 14.933837516257103 -29.161571756998701 -2.3971995526528733 -29.146987558294228 17.911652607098222 49.411625068837949 13.406314537270177 -32.941575152533396
leaf_weight=35 233 30 95 31 36 1395 51 22 51 250 41 202 1618 67 23 38 955 42 27 342 25 311 141 39 508 27 80 22 284 28
leaf_count=35 233 30 95 31 36 1395 51 22 51 250 41 202 1618 67 23 38 955 42 27 342 25 311 141 39 508 27 80 22 284 28
internal_value=0 -4.30028 -1.50108 -1.07003 4.15002 -4.11806 -8.87691 7.54524 14.4085 -5.32923 5.50678 12.6791 -9.54329 6.1 5.35839 15.5766 3.62116 -22.6104 4.7363 -1.76045 -46.7944 18.2295 2.72569 -1.79229 2.90546 9.67232 -1.14807 12.737 15.9949 -3.9928
internal_weight=0 4490 2786 2756 1016 1740 1704 2559 586 1645 1973 564 1669 1932 1865 271 1594 65 1529 574 52 362 522 381 985 369 616 342 306 536
internal_count=7049 4490 2786 2756 1016 1740 1704 2559 586 1645 1973 564 1669 1932 1865 271 1594 65 1529 574 52 362 522 381 985 369 616 342 306 536
is_linear=0
shrinkage=0.1


Tree=33
num_leaves=31
num_cat=0
split_feature=2 0 4 6 4 6 6 6 4 4 4 4 4 4 4 6 4 6 1 5 5 6 1 5 4 4 4 2 4 4
split_gain=1.88652e+07 5.20842e+06 4.70423e+06 3.48828e+06 3.26737e+06 3.07486e+06 3.25038e+06 3.14526e+06 5.52665e+06 4.29301e+06 4.17453e+06 3.53086e+06 5.335e+06 5.32239e+06 5.83887e+06 4.28471e+06 3.53255e+06 4.52155e+06 4.17589e+06 3.24241e+06 3.23753e+06 3.02129e+06 3.2006e+06 2.97228e+06 2.9099e+06 3.26333e+06 2.9484e+06 2.89877e+06 2.8405e+06 1.37857e+07
threshold=24.500000000000004 2.5000000000000004 118.50000000000001 863.50000000000011 100.50000000000001 1716.5000000000002 1295.5000000000002 222.50000000000003 28.500000000000004 79.500000000000014 18.500000000000004 16.500000000000004 24.500000000000004 57.500000000000007 62.500000000000007 803.50000000000011 77.500000000000014 960.50000000000011 3.5000000000000004 5.5000000000000009 5.5000000000000009 803.50000000000011 1.0000000180025095e-35 30.500000000000004 54.500000000000007 86.500000000000014 101.50000000000001 19.500000000000004 68.500000000000014 69.500000000000014
decision_type=2 2 2 2 2 2 2 2 2 2 2 2 2 2 2 2 2 2 2 2 2 2 2 2 2 2 2 2 2 2
left_child=1 28 5 21 -5 6 7 8 10 -10 -3 20 27 -14 15 -15 17 18 19 -16 -9 22 -2 24 -24 -26 -27 -13 -1 -30
right_child=3 2 -4 4 -6 -7 -8 11 9 -11 -12 12 13 14 16 -17 -18 -19 -20 -21 -22 -23 23 -25 25 26 -28 -29 29 -31
leaf_value=-3.9752410520981138 -30.470174156188968 2.6894976566999387 44.093734741210938 9.6651999363410184 29.478399083902548 -35.296072166442876 7.3193310416442969 -9.188438109347695 30.98567515679126 -3.8712277475393044 -40.202674937248233 -18.7777259887533 7.0927045992565496 -52.563468987601141 18.250864063609733 -12.853981325176896 -10.288553132089099 -20.149480838160361 -5.0978709185564961 73.185618972778329 13.835931225269162 -14.169849705696107 10.579783333225722 -20.194639290210816 -4.6770860633850102 38.650297646575119 5.5483872844267266 -58.601736014229914 -34.139227400154901 -5.1955010006973747
leaf_weight=1543 25 78 24 975 91 25 461 95 106 53 32 141 277 49 22 61 269 31 27 21 171 88 735 43 350 34 129 21 203 869
leaf_count=1543 25 78 24 975 91 25 461 95 106 53 32 141 277 49 22 61 269 31 27 21 171 88 735 43 350 34 129 21 203 869
internal_value=0 -3.79953 0.09211 7.04374 11.3566 -0.45224 0.00264034 -2.31716 7.44462 19.3667 -9.78823 -4.53313 -7.46986 -3.94518 -10.315 -30.5428 -4.3013 11.645 25.7253 45.0795 5.61294 3.76919 4.96876 5.65503 6.54568 0.765832 12.4531 -23.9401 -6.72235 -10.6764
internal_weight=0 4579 1964 2470 1066 1940 1915 1454 269 159 110 1185 919 757 480 110 370 101 70 43 266 1404 1316 1291 1248 513 163 162 2615 1072
internal_count=7049 4579 1964 2470 1066 1940 1915 1454 269 159 110 1185 919 757 480 110 370 101 70 43 266 1404 1316 1291 1248 513 163 162 2615 1072
is_linear=0
shrinkage=0.1


Tree=34
num_leaves=31
num_cat=0
split_feature=0 4 4 6 6 6 4 4 2 4 4 4 2 5 4 4 2 4 4 2 4 4 6 0 5 0 6 6 6 4
split_gain=1.55746e+07 3.85545e+06 5.48575e+06 3.66193e+06 3.24973e+06 2.96637e+06 3.03218e+06 4.59281e+06 9.28643e+06 4.51879e+06 9.34634e+06 7.14869e+06 6.67281e+06 5.64179e+06 6.05399e+06 4.88772e+06 4.86609e+06 3.70231e+06 3.33819e+06 4.3791e+06 2.95167e+06 6.73473e+06 3.40613e+06 3.27858e+06 5.53996e+06 2.91954e+06 2.66779e+06 3.70145e+06 2.80584e+06 2.64938e+06
threshold=4.5000000000000009 1.0000000180025095e-35 4.5000000000000009 1130.5000000000002 1636.5000000000002 1115.5000000000002 9.5000000000000018 11.500000000000002 19.500000000000004 28.500000000000004 56.500000000000007 18.500000000000004 18.500000000000004 21.500000000000004 30.500000000000004 49.500000000000007 18.500000000000004 17.500000000000004 53.500000000000007 13.500000000000002 42.500000000000007 43.500000000000007 565.50000000000011 1.5000000000000002 4.5000000000000009 10.500000000000002 1295.5000000000002 1306.5000000000002 1265.5000000000002 19.500000000000004
decision_type=2 2 2 2 2 2 2 2 2 2 2 2 2 2 2 2 2 2 2 2 2 2 2 2 2 2 2 2 2 2
left_child=1 -1 -3 5 -5 6 -4 8 -8 11 13 17 29 14 -11 -15 18 -9 20 -20 22 -22 -16 -23 -25 26 28 -28 -2 -13
right_child=25 2 3 4 -6 -7 7 9 -10 10 -12 12 -14 15 16 -17 -18 -19 19 -21 21 23 -24 24 -26 -27 27 -29 -30 -31
leaf_value=-37.603410358139961 4.1254707137870081 15.186269416270719 -30.370941901693541 2.2406525517989109 -10.075686695025517 -35.431145443635835 59.668678100407128 -6.5738062495008851 -1.6010270917087521 58.751812333327081 -7.7938776960582929 -33.056790629677153 -65.726354598999023 -52.306084032411938 59.528993225097658 12.019311523437501 -2.3831920179177302 31.101501865046369 70.364842341496399 8.1248072242736811 -36.568796908470894 49.357574319839479 11.876546154022217 -29.882461627324421 38.063360679149632 19.958033968651133 51.609444635564628 9.7717450411385371 -22.984947361090246 -12.6309791770214
leaf_weight=33 1807 155 49 1217 260 34 32 381 109 26 1378 92 34 27 24 21 196 28 26 20 31 24 40 24 24 146 22 545 39 205
leaf_count=33 1807 155 49 1217 260 34 32 381 109 26 1378 92 34 27 24 21 196 28 26 20 31 24 40 24 24 146 22 545 39 205
internal_value=0 -3.5486 -3.29645 -3.96238 0.0725766 -6.07198 -5.71433 -5.27371 12.3042 -6.22661 -3.59825 -12.8366 -23.7621 8.37187 11.962 -24.1637 8.98759 -3.99457 19.4508 43.304 12.8805 2.40088 29.7462 19.1795 4.09045 6.22634 5.39549 11.3951 3.55272 -18.9582
internal_weight=0 4490 4457 4302 1477 2825 2791 2742 141 2601 1861 740 331 483 435 48 409 409 213 46 167 103 64 72 48 2559 2413 567 1846 297
internal_count=7049 4490 4457 4302 1477 2825 2791 2742 141 2601 1861 740 331 483 435 48 409 409 213 46 167 103 64 72 48 2559 2413 567 1846 297
is_linear=0
shrinkage=0.1


Tree=35
num_leaves=31
num_cat=0
split_feature=0 2 1 2 4 1 1 5 4 4 2 4 4 4 2 4 5 4 1 2 5 1 6 1 2 4 4 2 4 4
split_gain=1.31649e+07 4.67085e+06 3.93017e+06 4.70407e+06 2.85099e+06 2.69508e+06 3.16407e+06 3.34896e+06 2.63238e+06 8.33015e+06 1.05987e+07 5.94998e+06 6.2922e+06 5.23399e+06 1.11532e+07 2.93002e+06 3.72563e+06 2.87973e+06 3.15634e+06 4.31963e+06 2.98511e+06 2.82299e+06 2.76287e+06 5.37204e+06 2.62227e+06 2.5555e+06 1.54715e+07 9.37747e+06 5.08088e+06 7.68352e+06
threshold=2.5000000000000004 43.500000000000007 13.500000000000002 27.500000000000004 1.0000000180025095e-35 7.5000000000000009 24.500000000000004 2.5000000000000004 61.500000000000007 43.500000000000007 6.5000000000000009 69.500000000000014 72.500000000000014 68.500000000000014 3.5000000000000004 13.500000000000002 19.500000000000004 14.500000000000002 2.5000000000000004 1.5000000000000002 2.5000000000000004 4.5000000000000009 1548.5000000000002 3.5000000000000004 4.5000000000000009 18.500000000000004 24.500000000000004 20.500000000000004 56.500000000000007 62.500000000000007
decision_type=2 2 2 2 2 2 2 2 2 2 2 2 2 2 2 2 2 2 2 2 2 2 2 2 2 2 2 2 2 2
left_child=8 2 3 4 -2 -3 -7 -8 9 15 -11 13 -13 21 -15 16 -1 20 19 -19 -17 -10 -14 -24 -21 -6 27 -27 -28 -30
right_child=1 5 -4 -5 25 6 7 -9 11 10 -12 12 22 14 -16 17 -18 18 -20 24 -22 -23 23 -25 -26 26 28 -29 29 -31
